{
 "l1_weights": [
  [
   -0.0009011042072241072,
   0.010291286490916079,
   -0.009058019837917238,
   0.0018685505141052005,
   -0.009810929416394729,
   -0.006367840366054351,
   -0.007778810763528863,
   -0.005741530310281556,
   -0.0007471454095835596,
   -0.0014248872653488394,
   -0.0073405415365497455,
   -0.009144647621374307,
   -0.011026549526233538,
   0.008220036235499361,
   0.0010018912848443885,
   -0.021433713675124078
  ],
  [
   0.011287519218756245,
   -0.007383548711807427,
   -0.0031444508540854105,
   -0.006830585798216511,
   -0.0015273432283674402,
   -0.010282203814504684,
   -0.000339216378056055,
   -0.012540034306140698,
   -0.0031730649833906807,
   0.01074438771324083,
   -0.0032801750436463398,
   0.027496849538061603,
   -0.015525589542985857,
   -0.018655660537212748,
   -0.003751779052581903,
   -0.0007694019478511646
  ],
  [
   0.009655404529712473,
   -0.011693190177823552,
   0.009259413117472312,
   -0.006189105289786926,
   -0.017176652095441055,
   0.007240168911325676,
   0.011388685649946587,
   0.0035956325862127863,
   0.01389293520175464,
   0.0035746564773813288,
   0.008381483682747357,
   0.004154524617188819,
   -0.006979449453359453,
   0.01832210848742941,
   0.002055279649080789,
   0.007373587891176104
  ],
  [
   -0.003176328164309786,
   0.010994405061117105,
   0.003271474233408907,
   -0.010690272883844384,
   -0.01137837073104122,
   -0.011710723136531443,
   0.0034575632669290686,
   0.008933409045834931,
   0.00018755304655537766,
   -0.015785156247590932,
   -0.0027142259653800734,
   0.00033848576221685015,
   0.004138061517050516,
   -0.004104808926697881,
   -0.006072884055769397,
   -0.0004942749182640426
  ],
  [
   -0.00015884059600047897,
   0.012538699128570785,
   0.0061766883751806735,
   -0.005265207700579601,
   -0.0010620985364880025,
   0.007814176522127578,
   0.02332200051939821,
   0.015117116319660536,
   0.0077562732360832885,
   -0.00029074906703652437,
   -8.393337636238564e-05,
   -0.0031925231786689373,
   -0.009964117706662851,
   -0.013972122355687445,
   0.0004860732518068854,
   -0.007013482378654092
  ],
  [
   0.011881584134640506,
   0.013282958233679433,
   0.0010611143171616304,
   0.010509634543267586,
   -0.009575078477424828,
   0.0006687432049186017,
   0.0005570876748750247,
   -0.00864486274910259,
   -0.000515637469131763,
   0.02018361756740328,
   -0.0010792201328525294,
   -0.024985017283073636,
   0.006917616605104168,
   -0.010522104684604232,
   0.0031834636974105847,
   0.017405083373294567
  ],
  [
   0.011587769588432635,
   0.013192616946020475,
   -0.02706429971271442,
   -0.0002843191439795198,
   -0.0027894510277572987,
   0.014487872885930049,
   -0.005534431714497589,
   -0.0011021150746462257,
   0.012610040585513212,
   0.013562175891461983,
   0.004463353091692824,
   -0.020224234516956367,
   0.012538433500040793,
   -0.00428565019877476,
   -0.01034956376845851,
   -0.014627706369140474
  ],
  [
   0.012815068507634086,
   -0.024072463464083312,
   0.0008710504547826402,
   0.004859163591948659,
   0.0027105937517257323,
   -0.004642993556063242,
   0.012627051544900394,
   -0.01318590675451423,
   -0.011881489626840845,
   -0.022779500258251043,
   0.004503831314180789,
   -0.01314744766949325,
   -0.003136183760793421,
   0.010375159340032542,
   -0.0034994722602474555,
   -0.0008687010162444486
  ],
  [
   0.002404681347131659,
   -0.013690131751432823,
   -0.026373806549186293,
   0.005519807050190194,
   0.010991165320795535,
   -0.011586013620364141,
   -0.005834983474904307,
   -0.0019122727588850403,
   -0.007331481311805571,
   0.0015124670362132726,
   0.0051787984062406965,
   0.006548171132104373,
   0.014344988261561584,
   0.015272341588667781,
   0.010479319801709066,
   0.0036144876026535794
  ],
  [
   0.015283285183089504,
   -0.02076167694429913,
   0.009871616380596965,
   0.0023108795649616023,
   0.001442338791537216,
   0.010965008992844534,
   -0.015933274391502193,
   -0.01760606994531319,
   -0.001672462671364953,
   -0.0005858934322234712,
   -0.012886208670742888,
   -0.0069517872193233824,
   -0.0023463366345446695,
   0.013833126436756955,
   -0.002089796634005514,
   4.675429177925256e-05
  ],
  [
   -0.00015232048332008245,
   -0.003796235078552689,
   -0.007496909279390721,
   -0.01228884354972464,
   0.002222957504783219,
   -0.0033246948728967184,
   0.011548452560110096,
   -0.023694621941352408,
   -0.012506373953125706,
   0.004783438912412135,
   0.007219377602632581,
   0.001206961810014806,
   0.0049709934170930475,
   0.007302904711044745,
   -0.0006145063744289698,
   -0.0010657387170771868
  ],
  [
   0.01587423682875532,
   -0.0046969117703878445,
   0.005482999378024396,
   0.014477013364069457,
   0.0035252581332529936,
   -0.003907977285024416,
   -0.02007519013434506,
   0.00865080594093679,
   0.0023031115646563968,
   0.01454710661994875,
   -0.0014292418390311587,
   -0.00383550892745128,
   0.002395094040095949,
   -0.0025760289343935124,
   0.00518288402474717,
   0.01125748516533605
  ],
  [
   0.016144110676920693,
   -0.0014346958156043273,
   -0.0066207451272656415,
   0.005192715167916504,
   0.009463457705141285,
   0.0005466032767327939,
   0.009042705553192316,
   0.0035867398890472827,
   -0.012013422633863286,
   -0.005084636256779493,
   0.005580581195547223,
   0.003810308645763743,
   -0.0018039654917807603,
   -0.027524716938477235,
   -0.007128042792573562,
   -0.001494095168145912
  ],
  [
   -0.00439131030307162,
   0.004090955499630079,
   0.002745543340903294,
   -0.0033444776452135616,
   -0.015054112271811533,
   -0.01755136890871092,
   0.011894150278638577,
   -8.57655826545213e-05,
   -0.013299001009007282,
   -0.004860159370695254,
   0.011293263647720103,
   -0.015981737000786082,
   -0.006607294407079316,
   -0.0029773379994739823,
   -0.007754636684722858,
   0.026164041150074018
  ],
  [
   0.006538470175730519,
   -0.007244799313580449,
   0.02125805646848758,
   -0.02414486836219992,
   -0.006277909526653095,
   0.016614308972480726,
   0.013211387648891997,
   0.018266718793567286,
   0.02331003154387168,
   0.00687482288077745,
   0.015443823236280721,
   -0.0055464555249323385,
   0.0080948885550295,
   -0.005318062567865669,
   -0.003010023277959872,
   -0.011922297765968667
  ],
  [
   0.003721119022258368,
   0.009639482831359182,
   -0.014587240925166365,
   0.017507566362115614,
   0.006322155499316025,
   -0.019546746899106644,
   -0.007532868368574681,
   0.03073639827833891,
   -0.007050572231964509,
   0.002699282255322875,
   0.003527793043444705,
   0.006195585374023466,
   -0.023454976563546483,
   0.010358586031899583,
   -0.005568290518757072,
   -0.002695615557273578
  ],
  [
   0.005554576085051494,
   -0.006044845035995428,
   0.007057661456902902,
   -0.0012336460259786822,
   0.018295947126721796,
   0.0049855711746222215,
   -0.0036536506257073328,
   -0.02795186630691136,
   0.011602669703084153,
   0.010683469991762048,
   0.000537917955932468,
   0.016739346906163452,
   0.01411694589197344,
   0.011192651374855889,
   0.0003118951800798535,
   0.0030380827293398555
  ],
  [
   0.002528508296645608,
   -0.0037461312465295856,
   -0.007663018230675024,
   0.008103731613104742,
   0.0048680989070480915,
   0.002184250913963123,
   -0.010359543412824268,
   0.01621013985721797,
   0.0008343415346259782,
   -0.006277918387444982,
   0.005228995295078375,
   -0.00041253892118557617,
   -0.004720555812627547,
   0.008641993111561051,
   0.01771852179785365,
   -0.009480217948464499
  ],
  [
   0.0065767646165369835,
   0.004242433921108782,
   0.0025214903268842713,
   0.0028758589372419193,
   -0.010432025163721796,
   -0.006535425885139575,
   -0.008985184134153926,
   -0.006245669919469904,
   0.0005595622305088519,
   0.003857493289909681,
   -0.007065996163262433,
   -0.0031090078090705154,
   0.012701340319529858,
   -0.012124936312653083,
   -0.007627400893213663,
   0.0065414494255910255
  ],
  [
   0.006553041341746933,
   -0.014020668425657402,
   -0.0009867640235345948,
   -0.00274481429950372,
   -0.002452463600571051,
   0.011188326112318148,
   0.017042604552760264,
   0.006300622468155409,
   -0.0005924874105743538,
   -0.0030515115067420336,
   -0.004702487420849676,
   0.002562964248018908,
   -0.009282464326700275,
   0.0002659241684350694,
   -0.0021370968879133234,
   -0.00012378565144826462
  ],
  [
   0.00034633271291575353,
   -0.006033479007157297,
   -0.014325523610949208,
   0.005736808868641056,
   0.0029541840798207554,
   0.0010725111426436748,
   -0.013314945575400668,
   0.01436212683477329,
   -0.00848548632889431,
   0.005683692504449313,
   0.0024794752944291504,
   -7.145259081314424e-05,
   -0.003442489006290671,
   0.0063436413769191345,
   -0.004975134883304824,
   0.001359640469836432
  ],
  [
   -0.014092272025702728,
   0.0053142854524774776,
   0.0009582999728879139,
   0.014246156815064295,
   -0.006822788041463943,
   0.002061728232024613,
   0.001134477869864144,
   -0.005452909468866137,
   0.020003517742333297,
   -0.006554832600215832,
   0.005982648309905983,
   -0.011030575143275163,
   0.005165375816250666,
   -0.007175733181180817,
   0.0033466757268304924,
   0.0031718980850786067
  ],
  [
   -0.015962573275894044,
   0.010113520758057323,
   0.007612504226119142,
   0.001896463578041099,
   0.0021277568456062597,
   0.005170742376494611,
   -0.003073901865086667,
   0.0027185074547665406,
   0.008715105664660246,
   -0.022181673289860017,
   0.01528022227466611,
   -0.0016104568690691443,
   0.013519241335827175,
   -0.00023896234638939282,
   -0.011522899335643695,
   0.012374331921507916
  ],
  [
   -0.011416742663352407,
   0.00047959976040454406,
   0.0062083852500036596,
   -0.007370033198777156,
   -0.013206937671205269,
   0.006682390583733214,
   0.005352602781860223,
   0.012015577812601602,
   0.015163234126163836,
   -0.0009828756020331991,
   -0.009152742512334932,
   0.006184706227821679,
   -0.0064216818890617845,
   -0.0007824769852908444,
   0.011457271735849853,
   -0.00013877574365404608
  ],
  [
   0.01282562975152625,
   -0.01234523035080769,
   -0.01186907707239228,
   0.008195002193115973,
   0.01252505160247703,
   -0.012741675463529254,
   -0.0047149124001367925,
   -0.003346930444244099,
   0.003988611853063836,
   0.011343847439608904,
   -0.0124615679082822,
   0.01025160963324084,
   -0.011678486042346621,
   0.005807953570127465,
   -0.011376151075798056,
   -0.023188208050764225
  ],
  [
   0.01564207236448761,
   0.0028462892616089386,
   0.007871947422587624,
   0.02299064029851703,
   0.0012795963463562601,
   -0.008128138931132813,
   -0.008994146039271083,
   -0.0004022109653029768,
   0.009253809637507937,
   -0.012524820717564663,
   0.01348501803272759,
   0.014116422896694673,
   0.0011388604860729128,
   0.001446482300648836,
   0.0047342864891498655,
   -0.01233165384017549
  ],
  [
   -0.0019885199885919954,
   0.0006828350203017391,
   -0.009214886986330804,
   0.001986548516370534,
   0.016537178895802435,
   -0.0018550306819616307,
   -0.003689657996965771,
   0.004252350641461135,
   -0.010559808958164715,
   0.010916956085265002,
   -0.0017803641829111409,
   -0.00587726176229839,
   0.009859529745095377,
   -0.006888226693921038,
   -0.01621685307286788,
   -0.006436539953710937
  ],
  [
   -0.007002241549618422,
   -0.014322337495841764,
   0.019558917714942933,
   -0.005919597487321332,
   0.007915600148072698,
   -0.02785856137044838,
   -0.005670783305391319,
   -0.002682379118422312,
   -0.0022910596814059822,
   0.017689838099784687,
   0.0034605330501625616,
   0.005516312913612243,
   -0.0099544426303423,
   0.010451006633957314,
   -0.004888335547753661,
   -0.006339154204439691
  ],
  [
   0.004131092922779081,
   -0.004703988367010218,
   0.006332174095877322,
   -0.020192578528646216,
   0.004205040732310692,
   0.00824305981594383,
   0.008451771754200851,
   -0.008466134419685778,
   0.0033125866306030283,
   0.007430933556514986,
   -0.005955603704317063,
   -0.006293932067009637,
   -0.0005306182661178121,
   -0.007610314491795377,
   -0.006731418813802382,
   -0.0023951007403012234
  ],
  [
   0.004982387500135777,
   0.00713275574531049,
   0.018181803059408756,
   0.007429917008783743,
   -0.014210439029534503,
   0.0053824019128676705,
   0.004950421651094424,
   -0.013535356715106162,
   0.0032003899649479303,
   0.0008007510904146732,
   -0.0096993555027155,
   0.005081327406025076,
   0.012892421131642138,
   0.000395399463258133,
   -0.007572029981622133,
   -0.01640494281921849
  ],
  [
   0.014687505172336886,
   0.007573621173373226,
   -0.016106697078822146,
   0.007709713442269986,
   0.020318106253061904,
   0.02067673521869777,
   -0.006831157297487475,
   0.00317191926362582,
   0.01750572148935413,
   -0.009303825823986972,
   0.02288760490409731,
   -0.013683720677328712,
   0.0011544736544019973,
   -0.0025706883705802147,
   0.01742356113964419,
   0.011704274277586506
  ],
  [
   0.003129767816438929,
   -0.008782170297727232,
   -0.020953646774142746,
   0.0012958537345435994,
   0.01704826726611324,
   -0.006006766639440228,
   -0.008037771176172572,
   -0.016749463002246286,
   -0.005585655068599167,
   -0.013608560086765562,
   -0.001899148438134603,
   -0.007619647732479845,
   0.011610163471800758,
   -0.009094612996066113,
   -0.006721980969856609,
   0.007983645973269725
  ],
  [
   0.007176502038292413,
   0.009436359081880716,
   0.022913722557016996,
   0.007739658528960994,
   0.012697925411394957,
   -0.012086063593104825,
   -0.013816886989233326,
   -0.006587829119332604,
   -0.007065616213537231,
   0.01049951793242018,
   -0.007796767006204124,
   -0.007967034571488,
   0.008671445634943658,
   -0.01735705032346756,
   -1.075028506644097e-05,
   -0.00618189464573976
  ],
  [
   0.004937249443012962,
   -0.006916328299616563,
   0.004073444157683652,
   -0.010053954553423365,
   -0.008879567601085008,
   0.0034536110962442314,
   -0.005661171546997171,
   -0.0016619091056777058,
   -0.0037290974154376164,
   0.023231031278493464,
   0.002043106159849235,
   -0.001333919019588546,
   0.007827228509598631,
   0.009636770564788686,
   -0.01137336561116693,
   0.008865446840651577
  ],
  [
   -0.00441580746028509,
   -0.0034168933119173807,
   -0.011020312432618215,
   0.0019472327798289394,
   -0.020286192314922364,
   -0.005751157269692538,
   -0.006364898534926715,
   0.01961226320364859,
   0.004681060724752387,
   0.007069581241853101,
   0.007829382497664118,
   0.013880454996809897,
   -0.00819738650007997,
   -0.01172657951415045,
   -0.015430649456843077,
   0.00792520692350644
  ],
  [
   -0.027602746814541824,
   -0.0034333152354559127,
   -0.0018205509851545933,
   0.023620118786944925,
   -0.0015273251078823165,
   -0.009108108184670843,
   0.017520051771704563,
   -0.004375719498879126,
   -0.01373806299367136,
   -0.00026782290428840357,
   -0.0027630964033726587,
   0.008397547801458172,
   0.004919553537087271,
   -0.01507757988303586,
   -0.006672412999969743,
   -0.0032174653363062633
  ],
  [
   0.006297200364937798,
   0.006357350399070002,
   0.006896701588372134,
   -0.004253790640108424,
   -0.009458175647572745,
   0.017075688553628874,
   0.01108707667062038,
   0.002095866470970889,
   -0.0034268261419347535,
   -0.022782171961520728,
   -0.0018041017153979284,
   0.0015540641732156998,
   0.008813368400863308,
   -0.030830870413464703,
   -0.002800532237121372,
   0.003294741391162955
  ],
  [
   -0.0002914920722088652,
   -0.003682864047191975,
   -0.009149302447179108,
   -0.009022987285939667,
   0.019902442652178633,
   0.012459453848660096,
   0.005417583861096067,
   0.007384159505398199,
   0.01853912591270999,
   0.004386527171074187,
   0.0001541522000071529,
   0.006714362241513768,
   0.007912496777098528,
   0.01792274025436758,
   0.002799280976436775,
   0.0021891635925354942
  ],
  [
   -0.012025816408132012,
   0.014154291533209589,
   0.012019856470969328,
   0.009191443373639424,
   0.004342726054733445,
   -0.0035531819254363346,
   -0.005396991826541924,
   0.00622773528832625,
   -0.016514861750618715,
   0.005543006073062316,
   -0.018168301502938244,
   -0.019844974312631054,
   0.018350744085268628,
   -0.009367053793094394,
   0.0013561364592598575,
   -0.009797621074659892
  ],
  [
   -0.007505260657007547,
   -0.005087283830043384,
   0.005821201957409952,
   -0.01609944713295132,
   0.008805401749666564,
   0.013465831960565203,
   -0.004037625967350916,
   0.003949022171292162,
   0.0030686993088596933,
   -0.0008770251270576419,
   0.0015364966378625929,
   -0.007910661710936403,
   -0.020084001409952392,
   -0.0023152975704369377,
   0.0018888266536740731,
   0.007783534463848502
  ],
  [
   -0.00371772834313413,
   0.002620017546924814,
   -0.009257584450846559,
   -0.003720341282280646,
   -0.0074429740976958165,
   -0.004236859315153434,
   -0.004847144216366853,
   -0.02694850777246507,
   -0.0018250183245376583,
   -0.0038094132448392997,
   -0.005600390459459643,
   0.002393324018263699,
   -0.00338611855108348,
   0.002028423748277659,
   0.015749175923834922,
   0.005111059816283179
  ],
  [
   -0.00962213122900316,
   0.00517350984373697,
   -0.000895068510603101,
   0.006976360746173486,
   0.012935729640760292,
   -0.01180595911967831,
   -0.002147238268273881,
   0.01293748597040172,
   0.007351379378709308,
   -0.00363363229183642,
   -0.006910246985843165,
   0.0006765132707885592,
   -0.007436762720184534,
   -0.004285212400012205,
   0.0019170932596224352,
   -0.005624335409608746
  ],
  [
   0.008999280003578565,
   0.002575584966630078,
   0.010586876678138266,
   0.0004803259086800773,
   -0.01637266245226699,
   0.011911716153698366,
   0.011930624833204161,
   0.005016762546919542,
   0.001636502478114701,
   0.006352611098790526,
   -0.016279097064876572,
   -0.009465565002482822,
   -0.013930225436177139,
   -0.019728490634134545,
   -0.00621031659161489,
   -0.011253917754077568
  ],
  [
   -0.007026726306614266,
   0.0015774907490274479,
   -0.013355570214143655,
   0.01065831449014538,
   0.014645566576876046,
   0.001579657935827545,
   -0.01568924035748041,
   0.004381562966862726,
   -0.015927860571373943,
   -0.0056734710264424735,
   0.002030192571173366,
   -0.009603360035204414,
   0.005393829884123782,
   -0.002421603456679777,
   0.006908170779102905,
   0.001002491742614001
  ],
  [
   -0.012758007673692312,
   0.005006816862068588,
   0.007732852229514229,
   0.009162009772479248,
   0.0018140148116679387,
   0.009582379982650267,
   0.018104270355229914,
   -0.006822771638356807,
   0.00030266174002369745,
   -0.013700562610987633,
   -0.008295881412464304,
   0.007497825992711327,
   0.00034025905405820944,
   -0.007067248083417503,
   0.006918785725200174,
   0.0006816254737318712
  ],
  [
   -0.002051519589705028,
   -0.00709113064320188,
   -0.00019882704122232408,
   0.009514278928683853,
   -0.0016573435842156974,
   0.01084890054461091,
   0.014414230524933591,
   -0.0018867768738855162,
   0.006192735336937938,
   0.0026240665134928945,
   0.0015104582679494403,
   -0.014502420287549597,
   0.005350177615629972,
   -0.002524845380341299,
   -0.016174002776428578,
   -0.0006723725702160228
  ],
  [
   -0.005528478778357475,
   0.005177363762475727,
   -0.00435314097663826,
   0.004701913831797982,
   -0.01186262551235197,
   -0.004658983030374603,
   -0.015335198505168452,
   0.003925472996324655,
   0.011943445887868878,
   0.0029376932453988014,
   0.011920607453499864,
   -0.010888336860928011,
   -0.0036462232025830615,
   -0.0022564669519516065,
   -0.01245080533306379,
   0.0007908463229813447
  ],
  [
   0.011254706150458172,
   0.01760367677680663,
   0.0006351327936152674,
   0.006901777672678596,
   0.004652128778212836,
   -0.005173198998927703,
   -0.002199372882084056,
   -0.004954261900809464,
   0.005861361419436089,
   0.010934589629281156,
   0.002815783653274663,
   -0.010054832315265256,
   0.003343219855774385,
   -0.00503556168323777,
   0.003639371900431107,
   0.02046076050950171
  ],
  [
   0.009126741246449632,
   -0.004363426656793526,
   -0.0031943383044625334,
   0.00726944292315088,
   0.009316884639057008,
   -0.010642573987885007,
   0.013714118403379636,
   -0.010369154948509922,
   0.011014019784408736,
   0.018918081988939305,
   -0.012204474590799015,
   -0.006881838933756266,
   -0.005517226192744522,
   0.0034396456723222767,
   -0.007398269146729381,
   -0.012697371070016124
  ],
  [
   -0.0009087698246488544,
   -0.018703790704702898,
   0.004095876020455828,
   -0.0012755570022389537,
   -0.013018435932221867,
   0.0017403726307907508,
   -0.006685746952466153,
   -0.004387826017351415,
   -0.00022060140278640854,
   -0.007962369455089026,
   0.0060583569304243625,
   0.013636634589484987,
   0.011996262644383983,
   -0.012695975568866409,
   -0.0032681074388107682,
   -0.002608129157494263
  ],
  [
   0.008092880198175193,
   0.01853823120607998,
   0.0127052094109698,
   0.015580574181317499,
   -0.024176750310606863,
   -0.004255754619686189,
   -0.013494911316917128,
   0.00987924264047893,
   -0.00031618025758400024,
   -0.0003435720066887682,
   -0.003038665441760942,
   0.005006778251128443,
   0.0004758047210966556,
   0.008956196112282514,
   -0.01271829021318049,
   -0.006294171166642014
  ],
  [
   -0.012087898876607344,
   0.001842174131373933,
   -0.001583329563877062,
   -0.0040178998484890534,
   0.010487640783311086,
   -0.016514643002484012,
   -0.007016002447780457,
   -0.011444545113283753,
   0.0028753488626240224,
   0.0019525430414819556,
   -0.0006548431018420774,
   0.022838278954724532,
   -0.003652120725066753,
   0.01721979503623304,
   -0.0008296703195523357,
   -0.018930933709556456
  ],
  [
   -0.0015140135194670965,
   0.0036805516831514506,
   -0.01635826877475803,
   -0.00379570348969132,
   0.002936565066909207,
   0.0035598953769979463,
   -0.0016465269933135318,
   -0.010265183929236279,
   -0.00018399114468135072,
   -0.008782167115788867,
   0.0020597999821011207,
   0.007007474237631873,
   0.005437542474274877,
   0.0006369826667052929,
   0.0062169196770299,
   -0.0032049405733417463
  ],
  [
   0.006162652925438969,
   0.00951926066853599,
   -0.001322025700300475,
   -0.013568129498611883,
   0.010338823268205278,
   -7.626977160011526e-05,
   0.009845413281631162,
   -0.005429739264870108,
   -0.00850530426297402,
   0.0031610586305508164,
   0.0046334959119192845,
   -0.02362968691128169,
   -0.010414780220040122,
   0.015359187550094364,
   -0.0157213055605578,
   -0.00964747813378159
  ],
  [
   -0.014553482497253934,
   0.00010779741093779297,
   0.010982423489338245,
   0.009667507165382698,
   -0.009698907219260776,
   -0.01409969785149719,
   0.023383520442821385,
   -0.0030097529253594515,
   0.009447104887465765,
   -0.008418973104166819,
   0.018778743265970274,
   0.0003076056154038348,
   -0.010440710832538417,
   -0.005142209114420553,
   0.007866048639391218,
   0.005403770772181722
  ],
  [
   -0.020491912315127855,
   0.009766527176859557,
   -0.013276535232874523,
   0.015845761819056326,
   0.006705240556284128,
   -0.02017939124696863,
   -0.008546204627024831,
   0.007710501676904762,
   0.003960330633803105,
   0.00330726072749229,
   -0.00477636608458433,
   -0.004329324752147735,
   -0.014980397686067824,
   0.004638250399246548,
   0.003615040638070255,
   0.008044022026062561
  ],
  [
   0.004356845761584406,
   0.0023045372305787104,
   -0.0036261926319782756,
   -0.0038989638247819763,
   -0.0007656976182693952,
   0.003661841520380381,
   -0.015226592402799773,
   0.009500514910835915,
   -0.00966341350451206,
   0.003970192526956173,
   0.015131779317516508,
   0.00240105728730499,
   -0.008561104977893244,
   0.018747209407533955,
   0.00834382024562659,
   -0.014414456918412208
  ],
  [
   -0.010172896198100663,
   -0.010403765748358329,
   0.014389167902966045,
   0.009427315909847024,
   0.0021063037496523622,
   -0.01031685847420124,
   0.006967264589982047,
   -0.008171784295720508,
   0.025733301033421595,
   0.004283168920626347,
   0.003498252368814797,
   -0.014057046908188198,
   -0.0029124450485917756,
   -0.0039685966804901916,
   0.014243878868342955,
   -0.011783961254246404
  ],
  [
   0.005740341482632122,
   -0.003909623194932725,
   -0.0004895320366716559,
   -0.011476334796338392,
   -0.010134069821390465,
   -0.0020619542328319434,
   0.0004958843421855764,
   0.006188202007888354,
   -0.01748438067380458,
   -0.014215189812747461,
   -0.0015432495776682607,
   0.0027725788447451427,
   0.007237138941483828,
   0.0038341447875349824,
   0.001136360343491074,
   0.003099973274393197
  ],
  [
   0.020478633441391815,
   -0.00197184006770665,
   -0.002987084817318621,
   -0.009228036688177248,
   -0.010986763214400556,
   0.0008433794768661885,
   -0.012748838413071057,
   0.004477216582848177,
   0.025451792411195263,
   -0.006001927648845301,
   -0.0013045598273363087,
   0.003766450340796554,
   0.007490677798404775,
   0.0019800707579427463,
   -0.012957111353321192,
   -0.002140162097518832
  ],
  [
   0.00808973522812612,
   -0.0029152319213826047,
   -0.011567027329829605,
   0.0029091591594633008,
   -0.0072618259034445765,
   0.007327412283711463,
   0.006742160951511004,
   0.0009122605892080379,
   0.0029553337911058016,
   0.006738430365761843,
   0.0025389096324444312,
   0.010906575399051566,
   -0.014265591887056289,
   -0.010151160924636625,
   -0.0018448690489931538,
   -0.006556692157441775
  ],
  [
   -0.007611072890437234,
   0.0024783542968454903,
   -0.003587421202497985,
   -0.0007940749920214975,
   -0.015609799557165004,
   -0.014545227555588023,
   -0.006681334065795482,
   0.004896765026802953,
   0.0003216189369760093,
   0.010775409901734883,
   -0.007542988440924217,
   0.0013784800596396334,
   0.005787842090677943,
   -0.008975893991937071,
   -0.001441887159984239,
   0.004778591766655942
  ],
  [
   -0.006676847866378525,
   0.0035276738053338,
   -0.004735257430216907,
   0.0006184232249083628,
   0.0005539794585137539,
   0.015243194573652643,
   0.012174854623450455,
   0.0181452798103879,
   0.017961648715363588,
   -0.0025188857511387994,
   -0.009634764490126254,
   0.015306142307205702,
   -0.008491875928269952,
   -0.00012154059343035457,
   -0.003416339154110753,
   -0.0057393326578968045
  ],
  [
   0.01290766580076555,
   -0.01948024386269821,
   -0.00432722281925826,
   -0.011607229013494197,
   -0.008606661224719696,
   -0.01853714963022254,
   0.007653945051153175,
   0.003683990829456592,
   -0.007454614717526792,
   0.001141427780063587,
   -0.014498001776112502,
   0.017827033520780213,
   0.005014366787233281,
   -0.0046281870175647714,
   0.0060177226267001714,
   0.0009718794403560208
  ],
  [
   0.0031421941880558422,
   0.009254147371912852,
   -0.013855225452213144,
   -0.016183180566413328,
   0.008405837494638408,
   -0.011112391178920407,
   -0.014723864236642981,
   -0.012987712504056049,
   -0.02357073567532852,
   0.0019477109782083638,
   -0.0026787909819202594,
   0.012627478719838232,
   0.0033698523863518186,
   0.009628200399737077,
   0.0024011150358797307,
   -0.008745021688261743
  ],
  [
   -0.02134133727311238,
   0.013563580963332557,
   0.004605340446715798,
   0.012715378477459472,
   -0.008200684671939532,
   0.006465547526364096,
   0.003773474145937424,
   -0.011656510006165147,
   -0.00465603658722056,
   -0.005258619194420561,
   -0.00033884877434746066,
   0.011835643651554073,
   -0.009922151238261475,
   0.0035911004628343436,
   0.013082251424444552,
   -0.003178308959496698
  ],
  [
   -0.012907623557306083,
   0.014340606768677076,
   -0.0030547343691772802,
   -0.007807013554219089,
   0.008260963983521656,
   0.0018496775353632955,
   -0.01619744052724297,
   -0.003116644506608466,
   -0.001482437044257306,
   -0.006894020256235238,
   -0.017575455185577543,
   -0.011034861442254712,
   -0.013876963129061533,
   -0.008653625937752067,
   -0.002291560758041474,
   0.012741917462403243
  ],
  [
   0.016261733332983024,
   -0.006243333612533296,
   0.004664304296162187,
   0.010054759472451593,
   0.003672437587641907,
   -0.000523604965093075,
   -0.017278995441075272,
   0.007867145576656664,
   -0.02525251599011245,
   0.0032771306851271105,
   -0.005854545919058872,
   0.037315670241496124,
   -0.011942985391413032,
   0.005156094653092479,
   -0.00012049912168728214,
   -0.005334963825129747
  ],
  [
   0.006340141195720847,
   0.002588043604380182,
   0.0050025717260888955,
   0.0005351897677737833,
   -0.002747365688548195,
   0.0184298905842637,
   -0.0041648019875454925,
   -0.008335032732378851,
   0.0006111016830083363,
   -0.0054841690277981055,
   -0.02313377198678372,
   0.00774083936117731,
   -0.014000288871205444,
   -0.015199561490136038,
   0.002297793522474976,
   0.001069458402372406
  ],
  [
   -0.01481000861853501,
   0.018256504080014488,
   -0.009334505510498761,
   0.008680469658956788,
   0.007358623652636962,
   -0.00017453155053863737,
   -0.002683616295489404,
   -0.007783577502631843,
   -0.002754683748796753,
   -0.005149554974777564,
   0.005384582832302104,
   0.009017016995216997,
   0.005503657265021265,
   -0.0035428666691738166,
   -0.007831879753336622,
   0.008576171148283808
  ],
  [
   -0.0065638063537190984,
   0.002584970329865811,
   0.017016907231149393,
   0.006554376117468491,
   0.00828975559102897,
   0.016831665337979678,
   -0.005504742599491278,
   -0.0007713729485297195,
   -0.016471756260160977,
   0.01534280749889926,
   -0.011200042448040416,
   -0.00021376701394672324,
   -0.0016854136590054101,
   -0.00456279937729327,
   -0.011482788194535314,
   0.00882496018697558
  ],
  [
   -0.002907880205833676,
   -0.012490096724932726,
   -0.007009893729247299,
   -0.002670618518067337,
   -0.002652819156843984,
   -0.01610785637385357,
   0.0038370835556549377,
   -0.0045315287891503474,
   -0.004628416316750935,
   -0.004790676497207955,
   -0.014562621837974382,
   0.010079330295680254,
   0.00691582126608918,
   -0.0012925851065925466,
   -0.0006304601970636235,
   -0.010566573878075521
  ],
  [
   0.0007342000710620224,
   -0.0002963781751983325,
   -0.004339331461406894,
   0.0040075135397858,
   0.001464375676859584,
   0.004945419567107165,
   -0.008126498598605324,
   0.007271495772295,
   -0.006073626263081968,
   -0.014811689686733746,
   0.013386507463108198,
   0.0040772316743706745,
   -0.032808771476552236,
   0.006374784852633452,
   -0.026243515895845036,
   -0.008132360374565599
  ],
  [
   -0.00871601193599539,
   0.0001770302658358146,
   -0.0054372177706111064,
   0.01921894186109113,
   0.024596267905242577,
   0.019083706761645954,
   -0.006625839008578038,
   0.006428504357893793,
   -0.01200643261536807,
   0.0009947685929470962,
   -0.002416714964892163,
   0.000729827001690669,
   0.008166820778405621,
   0.006521602629296632,
   0.008122512637234295,
   0.005741958320976137
  ],
  [
   -0.0198921451009725,
   -0.017009780315539295,
   0.005614988917244251,
   0.006877554850640146,
   -0.0032954772687570247,
   0.0008057617745615454,
   -0.022697002101198915,
   0.016358793695328656,
   -0.015634782018576945,
   -0.0069209444049377,
   -0.008453088481764699,
   0.022044349890133742,
   0.004090035808788439,
   -0.008132674670573716,
   0.0027071639593746273,
   0.002336870885038336
  ],
  [
   0.005718106410654766,
   0.011148392844221746,
   -0.0053742957548634455,
   -0.006412150602610683,
   0.0005090580667253939,
   0.025193322701351047,
   0.009270834230936505,
   0.008076312108140617,
   -0.010577966727821162,
   0.01247684454976134,
   0.02073083446293008,
   0.0009619823484483776,
   0.0023891872611812074,
   -0.0012597127481781302,
   -0.005112018957784799,
   0.0032164142384852375
  ],
  [
   -0.006117899158161469,
   0.00205067894664713,
   -0.00844607348015615,
   -0.005823493406291796,
   -0.009894928959230543,
   -0.01593123123188048,
   0.003056867968087886,
   -0.015257933749326165,
   0.007107381933902758,
   -0.007779512822074074,
   -0.008270889528203769,
   0.004505362256032704,
   0.0005533181620740744,
   -0.0018138802068573686,
   -0.002093743374955585,
   -0.008482174393241957
  ],
  [
   -0.01251994203124314,
   0.005036798315321319,
   -0.010401112883528019,
   -0.009585010589085263,
   -0.014216263221481886,
   0.0061183487739379615,
   -0.014709075716652085,
   0.007466686866236157,
   -0.018498702553763395,
   0.0032163317119269777,
   0.01222189649021421,
   0.0010155487344851357,
   0.009099038002615042,
   0.00891465112654639,
   0.0015698342540322687,
   -0.01394732263564037
  ],
  [
   0.000953442483497088,
   -0.007993090972344753,
   -0.01635547627473915,
   0.009253629233015771,
   0.01382836052298611,
   -0.015733247840129316,
   -0.0016871509455204203,
   -0.014748982160873265,
   0.0018521386699418179,
   -0.0046529137715970266,
   -0.010740893019281108,
   0.003113285348031603,
   0.00381804215103895,
   0.0018854132895700561,
   0.004484303169782084,
   -0.0034960534706471777
  ],
  [
   -0.00157369889930454,
   -0.005788312789555321,
   0.0008693265552622778,
   -0.005367095016020292,
   0.020764292144601123,
   0.015358732402884405,
   0.006590042357269572,
   0.0043998126067258825,
   -0.01967368842326884,
   -0.0009786595771229247,
   0.00666894202332501,
   -7.555781612052966e-06,
   0.023399940311857156,
   0.012615352089540973,
   0.006036144973160776,
   0.0028319355831030223
  ],
  [
   0.006106207998751204,
   -0.00857372473512223,
   -0.012506286432441244,
   -0.0032192231583899277,
   0.008076623892092821,
   0.0054605331815268275,
   -0.019878677383771262,
   -0.010582724942377249,
   0.009403690567399422,
   0.00799010108229005,
   -0.003848886675832133,
   7.387730217315809e-05,
   -0.012059995524918384,
   0.007924224650348623,
   0.003977488957104064,
   -0.004040522086216624
  ],
  [
   -0.0014465038798953593,
   -0.00430952486415849,
   -0.0012874726313734318,
   0.0008310318010002,
   -0.003539704708192648,
   0.004690983643048293,
   -0.005302511842813223,
   -0.008205586263078376,
   0.007226361932846612,
   0.0045100847034611116,
   -0.0013389206551635007,
   -0.0003685816386116368,
   0.005053614853070458,
   -0.011455985729831291,
   -0.009643791259313108,
   -0.010678996423814015
  ],
  [
   -0.0029291520968870188,
   -0.008425207272018542,
   -0.014816480224877478,
   0.002162281740154535,
   -0.005465789521765166,
   -0.0024017708387601643,
   0.012067626316191583,
   -0.009130787470032885,
   -0.012336133583175642,
   0.0028694066259212655,
   -5.6610533809594396e-05,
   -0.002008694814321108,
   0.007269720726848068,
   0.013184258233934444,
   -0.004425230855240582,
   -0.005067919409871834
  ],
  [
   0.01021187909364431,
   0.007222959789204385,
   -0.005684208388127273,
   -0.0006003599910384828,
   0.0003962112417187913,
   0.01092125755661343,
   -0.004187902118397536,
   0.0051279323052435336,
   0.0026020208008366392,
   0.002513046268394527,
   -0.001406453609370197,
   -0.0025215026036485948,
   -0.0008917248671558858,
   0.0038448805263350317,
   0.014664202191613865,
   0.00028749895766316596
  ],
  [
   -0.007316944919260785,
   -0.0029769740757034286,
   -0.01691289937500155,
   0.009085989207660522,
   0.0012145102409107742,
   0.01581822917458488,
   0.011130403620964435,
   -0.007237976851340753,
   0.007380324697113081,
   0.013209865282724121,
   4.4064815762161296e-05,
   0.002614414477125292,
   0.002893758878571625,
   -0.0017621631666131033,
   -0.010508450567129702,
   -0.007173771912639383
  ],
  [
   0.001400019244521078,
   0.02750928352599773,
   0.001573336473935548,
   -0.0011803969778566284,
   -0.013717360486505657,
   0.015264545305410191,
   0.007071930469689621,
   0.018791531225422268,
   0.007068751115383365,
   0.005456058624643899,
   -0.0012107795572324708,
   0.004047788995923719,
   -0.0024198784911392134,
   -0.007028951778653528,
   0.01019614428222702,
   -0.0029463247150305996
  ],
  [
   -0.014799501640775923,
   0.0012346440305991825,
   0.008347441872004265,
   -0.0005837655028318584,
   -0.0008585530891979274,
   -0.0013219358497823523,
   0.004488277141950005,
   -0.006715846261631907,
   0.010571215061365772,
   -0.010702409411382468,
   -0.014501228752195568,
   0.016099152835377446,
   -0.02542264577437582,
   0.006877531709191567,
   -0.004419632687541924,
   -0.012543008010896401
  ],
  [
   0.018499953294559213,
   0.009590024977320644,
   -0.00561654268654232,
   -0.01653066555809039,
   0.0040854344409144636,
   -0.019150834128980703,
   0.008070184862612637,
   -0.005310777996259776,
   0.0058492255453051764,
   -0.010620786020088159,
   -0.000735700991622143,
   -0.007476926602345658,
   0.005908871035068483,
   0.004758404745570405,
   0.005977354809882089,
   0.007868430334283834
  ],
  [
   -0.012116598463538096,
   0.02169752915796038,
   -0.006148780894296651,
   -0.005066700971205071,
   -0.004892469714451472,
   -0.0020613965106193546,
   -0.00531228748614336,
   -0.0032384287237923327,
   0.0010454605627356007,
   0.0023518528702334606,
   -0.012650757279179536,
   -0.01047418926371698,
   0.005237810867802136,
   0.012461101456217186,
   0.007565618593904259,
   0.00413991328393541
  ],
  [
   0.004468490793466885,
   0.010516010694100755,
   -0.00842781513932844,
   -0.0011748739357248803,
   0.009460594268895325,
   0.01280421087161576,
   0.0038435621103683946,
   0.0028533114022792957,
   0.011044463757202751,
   -0.009388717957589112,
   0.0036879365799432026,
   0.0030557893241323114,
   -0.012822189260392055,
   -0.026197506770313482,
   -0.0022562007144609117,
   0.001574629002160617
  ],
  [
   -0.0030538455381531326,
   0.003646317390274603,
   0.009307535862668078,
   -0.006677749887126256,
   -0.009513280328798427,
   0.013781491052180711,
   0.0010098555294843045,
   0.0028770781216467477,
   0.00027503905481758654,
   0.0073677728808109,
   -0.006459624348515938,
   0.004639559723390289,
   -0.008686706194828763,
   -0.0024968326757592463,
   0.010397640625539153,
   0.008557769392620141
  ],
  [
   0.005163612569151396,
   0.01011262083079193,
   -0.0012511563476169194,
   0.005988398228348621,
   0.0015611030133656375,
   -0.0040041874150509955,
   -0.006367876534433029,
   0.004028646690831043,
   0.004900098662176399,
   -0.011899889660027434,
   -0.011842515283879286,
   0.0012938851096376597,
   -0.01658873979023469,
   0.018955309677060873,
   -0.000602582644415823,
   0.012021304982418893
  ],
  [
   -0.008246175585207596,
   0.022541935880881013,
   0.00192007109038412,
   -0.012827135654235183,
   -0.007605530057156834,
   -0.014165202691317805,
   0.0008020833496337315,
   0.01842073258929124,
   0.0025713930281023017,
   0.011906755587889548,
   0.005662796472227353,
   -3.246979350846927e-05,
   0.009797700151820412,
   -0.003774447251718817,
   0.0031876099030736255,
   0.022185189106967075
  ],
  [
   0.008462324076751057,
   -0.00244547773712458,
   0.011489179532316667,
   -0.001379006018981983,
   -0.008093549497818427,
   0.0030637491297148428,
   -0.013042823919112136,
   0.005910645886370604,
   -0.013544350825452888,
   -0.007136104282745155,
   0.0010615578734044738,
   0.008621803953027616,
   0.005867845617379103,
   -0.0005132678784915548,
   0.006691457086139454,
   0.007739968538943818
  ],
  [
   -0.010453867966294302,
   -0.002768974916470416,
   -0.018929144160767103,
   0.01531265127721839,
   0.008825747814752259,
   0.004040059747328912,
   0.021132417578499808,
   -0.019450618411394723,
   -0.019868194525072352,
   -0.012755253162000822,
   0.0021119827296037495,
   0.010320831261475448,
   -0.007410992000945295,
   0.008380652844272368,
   -0.0010915145423454353,
   0.022151259619802154
  ],
  [
   -0.005846315331538933,
   -0.0058032779075888295,
   -0.01619142323914451,
   0.017348099643633985,
   0.02070171258173466,
   -0.0050106109043607325,
   -0.0003744568046807001,
   0.024484820703522564,
   0.0007418175747787446,
   -0.014014528476108169,
   0.002970806764117716,
   0.02195940962525627,
   -0.0010941417411490582,
   0.018559155402797036,
   -0.007388824699667388,
   0.015221728370998614
  ],
  [
   -0.005730498553661543,
   0.021937067171457977,
   0.003462394308237102,
   0.0036197945100952633,
   -0.01165998839162337,
   0.00658014288565686,
   0.009948435968173257,
   -0.007693793297622518,
   -0.006169980963238652,
   0.015548204042148827,
   -0.0068760118710284234,
   0.00987790794857954,
   0.004529608569912702,
   -0.0064869851703248035,
   0.003695325035595164,
   0.010045548135898894
  ],
  [
   -0.008540370132229,
   0.008213248841937313,
   -0.0016585037352494004,
   0.01062902449984996,
   -0.009381541240823377,
   0.004844436110226345,
   0.004305918453263193,
   0.031524231100938035,
   -0.017558284855816415,
   0.017851135861076946,
   0.010458700742477884,
   0.016978381343326254,
   -0.009830975097193757,
   0.004586488008572755,
   -0.005161423630174129,
   0.013068037389955102
  ],
  [
   -0.0015547495494765858,
   0.008031262868220064,
   -0.002853719335897306,
   0.007962180708320278,
   0.006493823562553014,
   0.0037040007486035106,
   0.02361792271663265,
   -0.0003902682951483158,
   -0.011138869862583336,
   0.013264897743301394,
   -0.01767208344426066,
   0.01876658787565191,
   -0.033916710825500365,
   0.004286057224690343,
   0.010342133610252331,
   0.008225157220809187
  ],
  [
   -0.0034040694649983484,
   0.0010745738018464973,
   -0.008527075983668616,
   0.005258998146479894,
   -0.008275889141111726,
   0.010537230789853162,
   0.0022118217775788946,
   -0.0008260966621671178,
   -0.011930284236469689,
   0.009826537437077999,
   -0.014414502201947127,
   0.0026447531286519057,
   -0.026757109768507228,
   0.02345321375441355,
   -0.000522084306844283,
   -0.0030767342932301453
  ],
  [
   -0.023085712286088602,
   -0.0030133733935543104,
   -0.005809140593749759,
   0.0033701369349591523,
   0.008716159466783797,
   -0.005573266091323458,
   -0.00042353181418308846,
   0.0009907367102929881,
   0.004865815842858129,
   0.008204230681811775,
   -0.002283505826676875,
   0.014307830203420599,
   -0.0025676684231842792,
   0.007086157605069696,
   -0.001890169583608978,
   -0.009507788159625028
  ],
  [
   -0.012108547196912523,
   0.022193887457958215,
   -0.0035807022304621635,
   9.79779500482445e-05,
   -0.00036844134496641427,
   0.007499796249939815,
   -0.000705164085693182,
   -0.006516340703782739,
   0.0028236800167289974,
   0.0016507028815826144,
   -0.0136627540636764,
   0.005369413439130589,
   -0.01500484740603772,
   -0.003870434818736995,
   0.02002759818981243,
   0.0011321488881213008
  ],
  [
   -0.015760647990093496,
   0.013397897002584374,
   0.005464984218633216,
   0.008020389220611053,
   0.006158616635133518,
   0.0049337810636118215,
   -0.017932382687716856,
   0.002153738043464833,
   0.009986300710633295,
   -0.012746281011358263,
   0.010065500869440355,
   0.0013294905589801846,
   -0.02251739921366349,
   -0.011596356188911743,
   0.003157977576265038,
   0.0045419274500454535
  ],
  [
   -0.0048497566719721795,
   0.0017426772532476548,
   -0.003904845883981035,
   -0.006034713374791645,
   -0.0038657046678477664,
   0.023936188660060975,
   -0.008623183344297626,
   -0.01162671163242848,
   -0.0039009662129827023,
   0.011586755274728492,
   -0.002603404668181574,
   0.014911637715690951,
   -0.0004441320161625066,
   -0.022093477400020305,
   0.002495851530734499,
   0.0030444042609721724
  ],
  [
   -0.009966869553480188,
   -0.010972391859233363,
   0.00611684204703329,
   0.009341806500591323,
   0.0004451999545179942,
   0.018061941317439045,
   -0.010217449980054402,
   0.005105180280648137,
   0.012208240313237952,
   0.007514022366313703,
   -0.007061286347299086,
   0.0017171704343403524,
   0.0004162630715609054,
   0.006832312530229835,
   -0.0030780161261139086,
   -0.004153305065657147
  ],
  [
   -0.012098243537955309,
   0.00792610604501751,
   0.006907140136233165,
   -0.0031749230773461612,
   -0.003521476324036431,
   -0.002082513017177393,
   -0.007056533250131561,
   0.012026240592025306,
   0.009891585125390734,
   0.010484128605878164,
   -0.004294628606435289,
   0.021251235588404714,
   -0.0024712752330351222,
   -0.002820054645140107,
   -0.003278401276025047,
   -0.010439728079961052
  ],
  [
   -0.00020911645838244156,
   -0.006621734317863302,
   -0.0016739117153044348,
   -0.0016684153256799714,
   -0.002591033230477277,
   0.02372729604081245,
   0.004593163670782556,
   0.005858644396884458,
   -0.015457035777839708,
   -0.005437688105753765,
   -0.01085419063596601,
   -0.005751565645169717,
   -0.015721252420958728,
   -0.019177654056813938,
   0.0036441094544028495,
   -0.007734448568792465
  ],
  [
   0.006352390629403626,
   0.012794231941275222,
   -0.01192489583265506,
   -0.0029234405820522886,
   -0.005665241289968915,
   0.009201935841893575,
   -0.006518054562173878,
   0.0034162985804299683,
   0.010903007583980853,
   -0.022937358666145304,
   0.02067857831299847,
   -1.2748759860874904e-05,
   -0.007199000943637254,
   -0.007895064147744844,
   -0.012362535984853438,
   -0.00866232238334256
  ],
  [
   0.004100254547494217,
   -0.010896997099098561,
   -0.009207426419312442,
   -0.009312658957470165,
   -0.004460686129128473,
   3.8936020947662646e-05,
   -0.013378253498467694,
   0.006351773727498236,
   -0.01709649539163956,
   0.016575473957836675,
   -0.00897478509711797,
   -0.0071497999794375156,
   -0.00033481445585987064,
   -0.004424073360167257,
   0.005198979900875446,
   -0.01098996581273563
  ],
  [
   0.009753229895554967,
   0.001310599501020721,
   -0.001950909779273436,
   -0.014621012315843998,
   0.001989145318793861,
   0.0001384196683670488,
   -0.014974525204138785,
   -0.009548785799883901,
   0.00840655514583413,
   -0.014533799129187596,
   -0.007491936994845,
   0.0022491769073039324,
   -0.003986875115418921,
   -0.0008608072793625055,
   0.006331956210287104,
   -0.00035226248843141467
  ],
  [
   -0.0036907290670018474,
   -0.009719732843598682,
   -0.009541641942985382,
   0.002577112462893074,
   0.00811309802216866,
   0.012790766773054924,
   -0.010396642552570425,
   0.006363352824763269,
   -0.009747175823715926,
   0.012927248590390631,
   -0.00351669435115656,
   0.006192307395873608,
   0.019279051207795554,
   -0.0075982822345285195,
   -0.0025305440392588046,
   0.01989648287387582
  ],
  [
   -0.005966708386351929,
   -0.011959916101109556,
   0.00011582006590518855,
   -0.012323444142166863,
   0.004990449002590411,
   0.003806880980834117,
   -0.004329109480653186,
   -0.005629716146472257,
   0.002975578538268581,
   0.0017452271851323398,
   0.0037798602873274924,
   -0.0042628897294146005,
   -0.005196869540950301,
   0.004187568825261715,
   0.0005009812090242237,
   0.01039425139151457
  ],
  [
   -0.0071202986270090945,
   0.01533958936174697,
   0.006780581930437818,
   0.005190555979227961,
   0.004519132574238634,
   -0.009789484779732014,
   -0.006571405328324299,
   0.0012052373011943642,
   3.182904663110429e-05,
   -0.006908313399759522,
   0.008192782218121634,
   0.008039188970354492,
   0.005121743019607384,
   0.004746505648414424,
   0.008659123523395306,
   -0.01093927357122058
  ],
  [
   -0.008313160783386743,
   0.010180778669640548,
   0.01885237477103596,
   0.026332958161585037,
   0.012293156030373115,
   0.000866194283304194,
   -0.005736466780390334,
   -0.005974754603952072,
   0.004407228708471264,
   0.0057728928161709415,
   0.0052249412347600424,
   0.01242423694379845,
   -0.005379833332579944,
   -0.024779248900714215,
   0.020238393825838814,
   -0.004138012127201725
  ],
  [
   -0.00581007087008931,
   0.01378393649203639,
   0.015163446902433271,
   0.009483922377609985,
   -0.008980713137284602,
   0.009339418873987138,
   -0.0033940945797190443,
   0.002130502815885735,
   -0.004679562404421098,
   -0.005038752515608014,
   -0.0023974791357094885,
   0.009651328478053457,
   -0.007035709168948807,
   -0.004608342694619872,
   -0.0025844857622662394,
   -0.010755077396678048
  ],
  [
   -0.01475513271774333,
   -0.010271684943059944,
   -0.0017486293707590591,
   0.0012210096254837864,
   -0.0031032472260575238,
   -0.019109104280254554,
   -0.0001784981978534187,
   -0.011065504438482523,
   -0.011147206500647695,
   -0.004634586153699493,
   -0.0005748452704739395,
   -0.0066160207808754505,
   -0.014437013792616147,
   0.01575923707339742,
   0.0012022140953139625,
   0.021470012451570538
  ],
  [
   0.0013294922251127631,
   -0.00036546573149997847,
   0.008943286779503163,
   -0.005640894966146566,
   0.010711683670524162,
   -0.00478719337077633,
   -0.006462355676136725,
   -0.015305395653102995,
   -0.01130955587772244,
   0.003706952706409368,
   -0.002247277540571984,
   -0.0015103807495954363,
   0.01241503663769894,
   0.006548953919706486,
   0.0028471132478407116,
   0.005575308959842078
  ],
  [
   -0.01622995611736646,
   0.001825243003689305,
   0.014632710257421277,
   -0.008668335506262921,
   0.004967827875560349,
   0.00372028215539562,
   -0.018873147972551015,
   -0.004690601247618157,
   -0.008750348224535997,
   -0.026021620751877472,
   0.010336496750393581,
   -0.006144235360561929,
   0.0002435000527448866,
   -0.01042082603405909,
   0.011755178578957243,
   0.002110762209506742
  ],
  [
   -0.003418834692984382,
   -0.006999418188409148,
   0.006671339692571491,
   0.010890560455010957,
   -0.009214894705512922,
   -0.0033300268929672134,
   -0.00599941939653381,
   -0.009602095134005504,
   0.006983866124091466,
   -0.000871084366082289,
   0.002355155366243986,
   -0.011442845319704553,
   0.008532589480103643,
   0.005696769414825943,
   0.01644224291108321,
   0.0090732075436173
  ],
  [
   0.0011093733092788266,
   -0.007893231728756937,
   -0.008440476011984915,
   0.011193406835059221,
   -0.0028281435597334635,
   0.009897326001736696,
   0.013436456957705557,
   0.004637984899155609,
   -0.010585830295754776,
   -0.015853925320041394,
   -0.00276598431937872,
   0.009797043695854378,
   -0.003118925519136534,
   0.016161833462987673,
   -0.012991767260822538,
   0.0091824975107825
  ],
  [
   -0.01348029923495331,
   -0.0042242417897024095,
   0.009311204482957861,
   0.0031700460535632824,
   -0.006375942802627766,
   0.002944647502921643,
   0.002825402541801629,
   0.016643154691435066,
   -0.011284264132386587,
   -0.01007047250475937,
   -0.021182065986129876,
   -0.0072000352623152976,
   -0.0030471741954656785,
   0.0206115080413966,
   -0.008405714839975766,
   -0.008945335696921132
  ],
  [
   -0.010332191476445585,
   0.0030028563640332124,
   0.002934265324164871,
   0.022953754606697442,
   0.0016826522587502185,
   -0.0015526475206835346,
   0.01212139384678175,
   0.003246517559460594,
   -0.02265676724171303,
   0.008608258579483262,
   0.010139815136274688,
   0.012461484082673018,
   0.009493214916778217,
   -0.0037037633920100534,
   -0.010783760992939347,
   0.0017346578382438462
  ],
  [
   0.004654231997017828,
   0.008207307182696683,
   -0.005502386352625481,
   0.030674105012910246,
   -0.0039000995456000094,
   -0.01126496589043823,
   0.005301490780822303,
   0.009979652268959424,
   0.013505605668106373,
   -0.005677119971407349,
   0.004542821344050351,
   0.008107546050655315,
   -0.014054251129694934,
   0.007036154090769611,
   -0.013832825204222389,
   0.012312882214065258
  ],
  [
   -0.0077187484875750265,
   0.007110534426244876,
   -0.015157835770628078,
   0.002526958394364224,
   0.010260493737393182,
   -0.0016582186150993854,
   0.009431073603657768,
   0.00536754133064823,
   -0.015844303837796114,
   -0.0033410276032879434,
   0.0022591975677493112,
   -0.00014017979124576112,
   -0.03775280465179674,
   0.023284745912752893,
   0.006723761432425963,
   0.006410346392489468
  ],
  [
   -0.01214507650591031,
   -0.0186808469984175,
   -0.008278221072655398,
   0.0185587993313382,
   -0.007515391733005212,
   0.00042511133460786875,
   0.015265669677415097,
   -0.0071603625232738695,
   -0.011646990409485487,
   0.011758351429056521,
   0.019926524159405153,
   0.010809889291966853,
   -0.01930153528749584,
   0.011296717583085555,
   -0.00872821725763076,
   -0.0011223797938836864
  ],
  [
   -0.018617680299034153,
   -0.01898075641113396,
   -0.021962479338140137,
   0.007612309744114146,
   -0.003636625501130477,
   -0.002754294370944292,
   0.0158518453089949,
   -0.008618080249161636,
   -0.0072064425776416485,
   0.012320515407995374,
   0.009732002855744763,
   0.0017126412578436121,
   -0.02633537886578199,
   0.019294593303955006,
   0.01257633663335025,
   -0.013253604950078698
  ],
  [
   0.013061285501538393,
   -0.01493575283557162,
   -0.009836396302026396,
   -0.003803344851245916,
   0.004810733142859685,
   0.0024285334426217987,
   0.011326654065394416,
   0.0006735155744811599,
   -0.0031819802780414397,
   0.007458915918206896,
   -0.0001279465201959568,
   -0.009297407649757996,
   -0.026392738030067663,
   0.010015906491124368,
   0.018328736950679696,
   0.007071287688771079
  ],
  [
   0.023811605068699896,
   -0.005024429798850244,
   -0.010267428213658447,
   0.0010750864386350277,
   0.01194334234441441,
   -0.007550527424564219,
   0.020261713177292986,
   0.0015173760311465536,
   -0.013057458125553248,
   0.007202858740873016,
   0.002441980975515996,
   0.005066824637178029,
   -0.013077201633997206,
   0.02793772179131535,
   -0.006466963713670176,
   -0.00568707790120139
  ],
  [
   -0.0033229329294551706,
   -0.011832691371844499,
   -0.0020860700277170532,
   -0.015458662437374341,
   0.004337460769951189,
   0.011980498337183473,
   0.010250659648747247,
   -0.014340312633790505,
   -0.011156904625021995,
   -0.006548068450013587,
   -0.007552358998697152,
   0.014743194993971214,
   -0.008252599323667956,
   0.017291413591123198,
   -0.003504222336587394,
   -0.015364231441431534
  ],
  [
   -0.0011426540314863514,
   -0.005913583654812045,
   -0.023715023457181232,
   -0.004751469528497228,
   0.013297161336920717,
   -0.012166421255559966,
   0.006985437379894872,
   0.002266199917992197,
   0.007110305809870501,
   0.015344468066723368,
   0.01110319217361966,
   0.008568933872722156,
   -0.011169605176808494,
   0.014141226855614815,
   -0.005263566990023572,
   -0.011139067815505756
  ],
  [
   0.0051053079849506565,
   0.01751774537142462,
   -0.005246341471911477,
   0.003198040935415252,
   0.015415977897411818,
   0.012860533288607708,
   0.021275093538707192,
   -0.00025468901759385904,
   0.006444916452757499,
   0.007170350535290326,
   -0.002161871650552284,
   0.012179648248810434,
   -0.01339136836275376,
   0.003638931152990859,
   0.011486257141939115,
   -0.00957422719395306
  ],
  [
   0.005455163227338373,
   -0.016501195405633894,
   -0.024766261952350505,
   -0.004787480158285316,
   -0.005567611971266015,
   0.0007017671724283321,
   0.01554209910571778,
   0.001228190524214138,
   0.0008765871254284973,
   0.011693187603594106,
   -0.0011134929788780337,
   -0.010763093089959989,
   -0.01016809433138882,
   -0.007708972441012753,
   0.007321946936838705,
   -0.0004094047005101763
  ],
  [
   -0.006655888696388697,
   0.007621149406155228,
   -0.0218995456482826,
   -0.00035479705765770864,
   0.00857662448572614,
   0.007504101014812727,
   0.00022503474261142557,
   0.006126202735849628,
   -0.007813608962304004,
   0.003591856680237576,
   -0.004174537822182277,
   -0.006126484552911352,
   0.007906008439342157,
   0.011111139623110559,
   0.017529364668278077,
   -0.030936954937438216
  ],
  [
   0.007805924655962986,
   -0.006765595242787584,
   -0.004485756482046805,
   -0.010893761319954265,
   0.0008187679205891876,
   0.006877711059571439,
   0.0037293405132207643,
   -0.001405329480543781,
   -0.0019539378728832806,
   0.011564804732806234,
   -0.00915608584951866,
   -0.023151388847997764,
   -0.0001168157140163692,
   0.007299069799833724,
   -0.0038470934575233766,
   0.014466452847985182
  ],
  [
   -0.00483362066681224,
   -0.021182267165519398,
   -0.007134443787397006,
   -0.0012147610866807695,
   0.01693088482252927,
   0.00126152617053793,
   -0.006124049324198079,
   0.017569208811691127,
   0.0051297811388237545,
   0.0003885803495919058,
   0.00036716722622607607,
   -0.0037844691947726754,
   0.00816040634858712,
   -0.005824755151747658,
   -0.0062249438675203135,
   -0.0012467422028622761
  ],
  [
   0.0029658974341258385,
   -0.002542898537742205,
   0.015700251634173174,
   0.007737184288575937,
   0.013437614400988581,
   0.003952108755660737,
   -0.0005775672507257466,
   0.004452500545271159,
   0.0005139394228960386,
   -0.0026666112765115105,
   0.008451091532829531,
   0.006297458813158752,
   0.00036605648082550286,
   0.010823029822519406,
   0.0027709776331386517,
   -0.02669516689124963
  ],
  [
   -0.0025111930047590097,
   -0.007313312863643094,
   0.0038811971860261032,
   0.002629140107346907,
   -0.01861865335087309,
   -0.0031278516108416677,
   0.002704909494689233,
   -0.009543582637472849,
   0.006980569141876469,
   -0.004449828344883518,
   0.0025546456753508134,
   0.0012742306039355185,
   -0.008075341738818511,
   -0.01161282717447928,
   -0.00233064803472109,
   0.0033738226281528117
  ],
  [
   -0.007004615191332909,
   0.003824475825753847,
   -0.0055214004238964215,
   0.002039910353894976,
   -0.0016429721556049939,
   0.0033478179851531577,
   0.00019981391467277336,
   0.0013097051645006253,
   0.010544151576181798,
   -0.0018489958346778518,
   0.008133042871282282,
   -0.002915169136821359,
   0.007490341501994954,
   0.018023503514499748,
   0.005440436141933462,
   -0.005172337759302422
  ],
  [
   0.003664249604279077,
   0.014034604962207946,
   -0.0026815883281054915,
   -0.012251137149157163,
   -0.003792425801783227,
   -0.010343557948846211,
   0.008115354270562916,
   0.008286686827284798,
   -0.0012652864960416208,
   0.006057476376433757,
   -0.0017824432813713254,
   0.0041032721510863655,
   0.0052603003839422815,
   -0.02156477077710807,
   0.0053641424259729216,
   -0.013501599513206985
  ],
  [
   -0.0022537997481476666,
   -0.007273085853176282,
   -0.002683737042821922,
   -0.006015671597702352,
   -0.004326724738000805,
   0.0007640811667109418,
   -0.014948509257418698,
   0.004988806303843144,
   -0.008663450261340131,
   -0.0005855178562968431,
   0.010634164377248664,
   -0.0030490770030402988,
   0.0071942736501588115,
   -0.00021274954447895832,
   0.00683193111931256,
   0.004011851163789311
  ],
  [
   0.008788189936264568,
   0.01188340676795195,
   -0.017122699667028184,
   0.001746418939828893,
   0.014109536211063995,
   -0.00936758225397835,
   0.017960868298985827,
   0.0004749085174895506,
   0.008560740315375829,
   0.0066763239640639065,
   -0.004529732815435732,
   -0.013272107030573129,
   0.012594357222836812,
   -0.0132290774498388,
   -0.02334796181951254,
   -0.014768959938612387
  ],
  [
   0.015771193910010244,
   -0.011297601672100447,
   -0.011341270160214086,
   0.0044225220478396835,
   0.012332753700374368,
   -0.00526357050525524,
   0.0015485419263231326,
   -0.007559621931120164,
   0.0008951953582210678,
   0.01598640811920001,
   -0.007085414567987945,
   -0.0008582552522620265,
   -0.010049388526404933,
   -0.0034488983823744834,
   -0.015455666058882477,
   0.0006857231818555653
  ],
  [
   0.007373584030497599,
   0.009888982020493072,
   -0.0042618903787740945,
   -0.014485048094882663,
   0.005405054869624455,
   0.011334426627231702,
   0.012024966384782388,
   0.01150247252199054,
   -0.004891345186214965,
   0.012459506528400015,
   0.019946321111009052,
   -0.004395456661329083,
   -0.004764516246438487,
   0.011178941315289797,
   0.00044177777735581743,
   -0.018022162027185932
  ],
  [
   0.014321266369154402,
   0.010261563485937592,
   0.009518763177910177,
   -0.006393825221698492,
   0.010435940255279259,
   0.005332359859986789,
   -0.011025343631627202,
   -0.0035221690231049927,
   -0.002438972224775209,
   0.009656152432340914,
   0.01076804454009996,
   0.022027392986955822,
   0.018279731278752338,
   0.005057224943281782,
   0.005515034170333165,
   -0.006887160256531626
  ],
  [
   0.024669956626072125,
   -0.008791819801567824,
   0.01660679470588082,
   -0.010386585544423729,
   -0.014549454755755612,
   0.013383298098295887,
   -0.007018532030425508,
   -0.014195585088202007,
   0.017492074858315318,
   -0.022059716563650317,
   0.005204037755598031,
   -0.014318974034676357,
   -0.00164426895221749,
   0.00931838784217905,
   0.0009406561592367725,
   0.017444236030503595
  ],
  [
   -0.008484409541536604,
   -0.012590186453681462,
   0.009737843080580682,
   -0.010905154831203728,
   0.004492383804994928,
   -0.016914285301572827,
   -0.014703117696993239,
   -0.0012291969129158995,
   0.0018805786669055997,
   -0.01523059102451428,
   -0.0001734377849216916,
   -0.017518657229328244,
   0.003818494062556076,
   0.004441472710708442,
   -0.0026630731802545363,
   0.0036943077286987276
  ],
  [
   -0.016719598197114036,
   -0.023211006205680673,
   -8.650767066905991e-05,
   0.021192256048662286,
   -0.0062270079984198205,
   0.008395879395426627,
   -0.0019933244030836037,
   -0.018653075105871105,
   0.0035331863571020166,
   -0.0011568404977874468,
   0.017623757276968917,
   -0.022379347274021286,
   -0.028831411415025387,
   0.012684909831671252,
   -0.001362790940647661,
   -0.007195130306426435
  ],
  [
   -0.006155181702255606,
   -0.02113661247100612,
   0.0002589861299859945,
   -0.0023799121967354475,
   -0.01342460515288726,
   0.009168753169174761,
   0.006807936049611741,
   -0.00827725529201075,
   0.004126535446345257,
   0.009559152790365961,
   0.00906342906196816,
   -0.0011124712489855566,
   0.007982720997539178,
   0.0042932689336933755,
   0.003996061093319557,
   0.0034145834675172824
  ],
  [
   0.002045334559971516,
   0.007098236246277212,
   -0.020696182797698002,
   0.016726893692217693,
   0.013029025755274426,
   0.0062951063764383535,
   0.006642485973395663,
   -0.0020869937016137667,
   0.005667667090254665,
   -0.005885578043473833,
   0.015612001408839362,
   -0.006199295018433321,
   0.0022840869469987857,
   0.007203455796148954,
   0.017913851660966353,
   0.013083891356003238
  ],
  [
   -0.010968470559730983,
   -0.009044474635664542,
   -0.013627809832859687,
   0.014463306287738047,
   0.006904309060340365,
   -0.0009527273925457864,
   0.005044226886000795,
   -0.006608094427687385,
   0.013747262793105786,
   -0.001686905040654862,
   -0.005220139342913408,
   0.004248989981933974,
   -0.01324511624241623,
   0.010521555938348855,
   0.009918178345167738,
   -0.003457986140269782
  ],
  [
   0.0007646926872198486,
   -0.006345240696978915,
   -0.008386979421007107,
   0.014456574083721056,
   -0.004671373540181267,
   -0.0077380692309501784,
   0.005826383215595005,
   -0.014438806410467827,
   0.007991598752954288,
   0.005769992130823842,
   -0.005819741194644457,
   0.013731836522968182,
   -0.014487380200909372,
   0.006114127667687028,
   0.0015840566292817688,
   -0.009516161094001295
  ],
  [
   0.008981046312492795,
   -0.028947157865576917,
   -0.015307381756165635,
   0.02124385810172287,
   0.0005491279420956478,
   0.015295303516838655,
   0.00768421445174886,
   -0.007586132509761922,
   0.0018497762008640901,
   -0.006908876235447888,
   -0.012054596061630467,
   0.019346227226199237,
   -0.018250175096348645,
   0.011512113262288142,
   0.009688464027394232,
   -0.02671597113068341
  ],
  [
   0.008076310418644754,
   -0.01019105566759415,
   -0.01048917502219978,
   0.009849113147114215,
   0.015087471113642783,
   -0.0032326917236706718,
   0.013872365958564104,
   -0.008459866228693096,
   -0.002218730796880531,
   0.012106452000292582,
   0.001264369250356858,
   0.003728160389228634,
   0.0005824895391991963,
   0.005997184517704657,
   -0.0034881467411848723,
   -0.00409529763046537
  ],
  [
   -0.00030338672400557543,
   -0.0007989065867727245,
   -0.010316627556283679,
   0.008838392870641197,
   -0.0024905550756339594,
   0.0306764039437601,
   0.01779396430359107,
   0.004637647600727576,
   -0.006046326180691233,
   0.0004231373307202859,
   -0.016980076114118895,
   0.005757203038934919,
   -0.0152614976882232,
   0.017072382745552044,
   -0.0019031448221499096,
   0.01076197600640474
  ],
  [
   0.006681391105087027,
   0.006370185489376239,
   -0.011094806145004445,
   0.0036441196240462334,
   0.016620368019627327,
   0.014093016747275644,
   0.0006342084388359392,
   0.0007059008172945144,
   -0.011954239258475557,
   0.009619230731639263,
   -0.01937396913420428,
   0.016639744216903507,
   0.0016412569601627941,
   0.01832014963641319,
   -0.002500570487945722,
   0.021025579506402013
  ],
  [
   0.00014164116516254566,
   -0.014824689404868904,
   -0.006708373484795934,
   0.010695685629597898,
   -0.0052457294224738625,
   0.004281380354785349,
   0.00807367320358831,
   -0.017296878310008087,
   -0.016070300373096254,
   0.0002645316894056384,
   -0.01846491112794038,
   0.00264444463300058,
   -0.012095155511911749,
   0.0135746412617553,
   -0.004263766872767183,
   -0.01697585719107911
  ],
  [
   0.005450022113122461,
   -0.013038175663822309,
   -0.022201621914068156,
   0.015419014801713926,
   0.008796334741734918,
   0.027382635276339874,
   0.009168834304796857,
   0.0005912431106933348,
   -0.012243029210817633,
   0.02974741264328732,
   -0.01186824606180583,
   0.00767304412461691,
   0.0072767954738463736,
   0.011587149640278443,
   0.005291045365896375,
   -0.007415277415539254
  ],
  [
   0.012949159742214061,
   -0.007001033596040359,
   -0.016791630819459377,
   0.020416019265469435,
   0.019330826400868813,
   0.021019628639489394,
   0.0014856951655291815,
   0.0010889368742455488,
   -0.014577841171448768,
   0.022932176070600895,
   -0.005899582457092754,
   0.01625544275925634,
   -0.005053912300812783,
   0.011657643854743676,
   0.0049210801926773615,
   -0.01632104802141782
  ],
  [
   0.0030313797342169523,
   -0.003977618938046099,
   -0.020638186858800624,
   0.0009659736070118106,
   0.025047171550455643,
   0.011151064812025813,
   -0.0035902594719730598,
   -0.012433649801570738,
   -0.0003161554845527997,
   0.017213903705752556,
   -0.01612659874830326,
   -0.0012454649417254263,
   0.011387283814669358,
   0.015851797296466533,
   -0.005545746015375333,
   -0.015190035723752304
  ],
  [
   0.01262121309102412,
   -0.003628909828048543,
   -0.01875216246197228,
   -0.023285440335645044,
   0.0032938850106652984,
   0.001531917351373827,
   0.0034858758500006955,
   0.0143653005361968,
   -0.007481075605422176,
   0.010320172444900647,
   -0.009971939933955717,
   0.001211970681809836,
   -0.0196118652106194,
   0.010058372781246,
   -0.005129684142156675,
   -0.008940456030571609
  ],
  [
   -0.010622878648803024,
   -0.003738086469486844,
   -0.018745370416441993,
   -0.0028481193830759612,
   -0.0013482492547921548,
   0.007777102989841625,
   0.005564446053807293,
   0.014220893911933489,
   0.008122624043729544,
   0.019957776912784508,
   -0.018791224682522607,
   0.0022851334773619086,
   0.008004532103339469,
   -0.0012341694771182243,
   -0.006933482261708121,
   -0.013306227750801003
  ],
  [
   0.003972486923898167,
   -0.017535408877304478,
   -0.011650021376799043,
   -0.006979055681208867,
   -0.0017206386072812039,
   0.01276582385609102,
   -0.00019760413816013894,
   -0.0034461498820084974,
   -0.0019180706152587123,
   0.010139981198657708,
   -0.016471848272613644,
   0.017281063147618778,
   0.001852598145414674,
   0.007900083293887868,
   0.020827110863916275,
   -0.022707541557695155
  ],
  [
   -0.006998389291800825,
   -0.006152158683975854,
   0.005763594556327724,
   -0.019256608231228208,
   0.004225731258944972,
   0.010213378886546604,
   0.012539700575218748,
   0.013531772354110655,
   0.007101151700566359,
   0.004014904607202764,
   -0.011240678535248625,
   -0.01668887319446139,
   0.005905948649277779,
   -0.006799746343506883,
   0.0009237190905479334,
   -0.015010280316876892
  ],
  [
   0.010427065919809303,
   -0.00591514860580582,
   -0.00194336733406098,
   -0.019517455418447297,
   0.02407468284438233,
   0.009721894772381154,
   0.0036399835462936256,
   0.001794706445430252,
   -0.0051616106589625925,
   0.006262050887952473,
   -0.008114595968271245,
   -0.008729407821326564,
   -0.005524166452663226,
   -0.022726043773314136,
   0.004435898906444436,
   0.004356854748334091
  ],
  [
   -0.010100027328428275,
   0.004502520830161299,
   0.006989780895607807,
   -0.005954457958172501,
   -0.00973233535393851,
   0.008523512768870891,
   0.000348484329933833,
   -0.009830944088470208,
   0.003256780286644525,
   -0.01129578654846932,
   0.0008368233251560552,
   -0.008506949105160724,
   0.014950450943909349,
   0.0012567210361373582,
   0.009147087298976933,
   -0.006301341815696599
  ],
  [
   -0.00434260704249385,
   0.005304253753591833,
   0.007751765233731435,
   -0.008375087633586705,
   0.008841253911567063,
   0.004160217777387104,
   -0.0026476782506184263,
   -0.002468381136517172,
   0.009221612886932127,
   0.003451676461727425,
   0.00651446579907029,
   -0.004061019081396964,
   0.0025237146164244295,
   0.008170643602331835,
   -0.001125245318536379,
   -0.006787591601994004
  ],
  [
   -0.019244985329343618,
   -0.0013661304197750744,
   -0.007657387550918009,
   -0.018352031135290662,
   0.0031505751538646555,
   0.001372195111190222,
   -0.0050440733276277,
   0.0011744211773907476,
   0.015859703694330974,
   0.009716685545347692,
   -0.01923494025834101,
   0.015718097189920555,
   0.002978826811647976,
   0.0038184220315798105,
   0.0010346286276558673,
   -0.005721539990650187
  ],
  [
   -0.012725992195778435,
   0.009854327503888193,
   -0.008563842040402983,
   -0.002502508918732834,
   0.005853648672864155,
   0.00016835192031721793,
   0.017529165878331622,
   -0.01804303688451403,
   0.006825202247175638,
   -0.006588215576423395,
   -0.00690444949592151,
   -0.0034137890479601024,
   0.0070709115038849425,
   0.0026700130802654216,
   -0.009808551258236061,
   0.0026922208659535323
  ],
  [
   -0.01597320391727556,
   0.0007687408065615432,
   -0.012063861727106462,
   0.009193268573542598,
   0.009348883014587443,
   0.009766983077852995,
   0.011966104069139573,
   -0.0034705069672902275,
   0.003461519490930476,
   -0.0003057867779731479,
   0.000522806451544559,
   0.0011433564686120987,
   -0.0065677873861198326,
   0.005246676322058267,
   0.0041157491614433475,
   0.0118337501223618
  ],
  [
   -0.00354118762517983,
   0.006229213159437985,
   0.012969917541235065,
   0.004023970932090487,
   0.00025055771273314154,
   0.0034599581768967607,
   -0.004841715230657029,
   -0.008234838681531619,
   0.0025031223380263946,
   -0.01723200395965539,
   0.008405324860434578,
   0.0045325104132661114,
   -0.00204842185932083,
   -0.02749200699271895,
   -0.011529287322471861,
   0.004800473528640039
  ],
  [
   0.005975891632031635,
   0.008470047067266145,
   -0.0059823206284134,
   -0.002257668723894423,
   -0.0025719254922991373,
   0.01065354836369506,
   -0.01711046480895779,
   -0.011094509127384725,
   0.0018300271215193295,
   0.0019633216743911008,
   0.010084536702518064,
   0.012672035431015903,
   -0.004316448740555511,
   -0.005046793018929288,
   0.010556966017089098,
   -0.025712512605243664
  ],
  [
   0.0068224443250663,
   0.0031255801472678466,
   -0.006446702919920452,
   0.004359846416487923,
   -0.0036504566744957035,
   -0.0023473803467966648,
   -0.0017920400786582676,
   0.00775647740952007,
   -0.009069307736237837,
   0.012745332536282824,
   -0.015654548302069485,
   -0.010707014130143312,
   0.0042095088769679425,
   0.012314090419018467,
   -0.004608969340706026,
   -0.0026107236286311356
  ],
  [
   -0.013271293275412002,
   0.008068877239211191,
   -0.00718678153840293,
   0.0014864693677692157,
   -0.0041865137963421435,
   0.003317888065997781,
   -0.005042219589293442,
   -0.014348539997158488,
   -0.005118727670547278,
   -0.03275722181110256,
   0.0029965166393793453,
   -0.011067347032059128,
   0.0037182876036064238,
   0.010865494661473907,
   0.006840104181784395,
   -0.00437902672703496
  ],
  [
   -0.004808724148959128,
   -0.012443165039957753,
   -0.01715146823343526,
   0.01890932896465399,
   0.014303064692077306,
   -0.017781182493682598,
   0.005814426276453102,
   -0.0028015794292279377,
   0.00418116045862302,
   0.01452692266259762,
   0.006375203338358104,
   -0.0005509159235444909,
   -0.021548738669881932,
   0.01116814190425795,
   -0.004712229178473291,
   0.007874214261286198
  ],
  [
   -0.007941176836464035,
   0.01168336576561038,
   -0.010899691834510731,
   0.011950020635880531,
   -0.0026059356750075626,
   -0.01737803465029513,
   -0.0020468256601207835,
   0.0171741288845688,
   0.007035336144381029,
   -0.0009182975849209408,
   0.020192819317485372,
   -0.006540368022519533,
   -0.020437489050717128,
   0.009830416427565117,
   -0.0156531744379433,
   0.0010856568639054465
  ],
  [
   0.014244718323593504,
   -0.0007394707034778714,
   -0.007725657562799643,
   -0.0029115852117794893,
   -0.0031337989012349284,
   0.006707871827842791,
   -0.002689341707360856,
   0.005835897492937495,
   0.0064393066268395496,
   -0.006677589345540642,
   -0.008511435581699967,
   -0.0011262795827433753,
   -0.00808543110928793,
   0.012734782738751907,
   -0.003019416985009872,
   0.005732502807292105
  ],
  [
   -0.0190453901354972,
   -0.028696456122492667,
   -0.016656606930616318,
   0.016554630069465195,
   -0.007089953944093856,
   -0.025766486857160934,
   -0.011649975939235231,
   0.006532729332319822,
   0.008171327410813107,
   -0.0043223300195501906,
   -0.0071447275994204005,
   0.005237874799978776,
   -0.010961220769478095,
   0.007281705452384439,
   -0.004489701202238978,
   -0.0026137487400043832
  ],
  [
   0.007212605239324384,
   -0.009228165466394073,
   -0.004356725626367542,
   -0.0012490762822347874,
   0.010818567629903427,
   0.00976887561854125,
   0.026006640255274764,
   -0.012385746248456295,
   0.0011219869064446042,
   0.0007065315871709677,
   -0.009412872223950017,
   0.02551382689392647,
   0.004566728718729179,
   0.0038892882433781673,
   0.008472994267180282,
   0.022860422081819345
  ],
  [
   0.0013013312772597516,
   -0.004809988617123079,
   -0.0011218677361560408,
   0.001783974523189901,
   0.003490903555918926,
   -0.0054218560734443045,
   -0.008337230623349595,
   0.00590308114939879,
   0.014050161572912943,
   0.007739753285774779,
   -0.0008313595086907015,
   -0.0037426471834502814,
   -0.012026598578131431,
   0.008340815535823495,
   -0.003133892957210365,
   0.015020358971976969
  ],
  [
   0.01365913435878915,
   -0.0041650002177558935,
   -0.0014887070384377314,
   0.009777010568162825,
   0.01665039545556301,
   0.010434412749151011,
   0.009856322840208194,
   -0.015941492955766832,
   0.009307448621100584,
   0.003478217159823543,
   -0.002864847414380508,
   0.004457085690230276,
   0.006625904732917028,
   0.007784533473466997,
   0.004661461730624355,
   0.004072800488661564
  ],
  [
   0.014173580739900955,
   -0.005867080394759458,
   -0.015008036333271756,
   0.020622158464458078,
   0.005866283616212153,
   0.007749444847076121,
   0.014237654265897959,
   -0.01629999453635457,
   0.026768041375035467,
   0.01571038868328687,
   -0.02235272004831963,
   0.010785131832487653,
   0.013192765356294798,
   0.01057009283474501,
   0.010077998995681315,
   -0.0004958915953937595
  ],
  [
   0.0035941589992060804,
   0.015213981849773923,
   -0.015918171243992158,
   0.013400881656340536,
   0.012331904902904941,
   0.00939974216540363,
   0.01661141647316502,
   -0.023119633117101846,
   0.0014980842082640132,
   0.027537674382190073,
   -0.0008554926722889954,
   0.0031020226352217904,
   0.021280890665566033,
   0.02668954210041034,
   0.014533514220366526,
   0.0009474253923178373
  ],
  [
   0.025147088822801145,
   0.023491485628324513,
   -0.024110021390794583,
   0.010046333236929625,
   0.017280745007006326,
   0.018300086482484646,
   0.015415321190123189,
   -0.00969031079150839,
   0.012093057490912697,
   0.022671477289696262,
   -0.014495592018923233,
   0.010799197759312092,
   0.009277799165037867,
   0.013048125056272768,
   -0.0027589878152413927,
   -0.007805969455367763
  ],
  [
   0.02889715910630674,
   0.02400625992273542,
   -0.023029320375676277,
   0.011403390382183022,
   0.010827178769710481,
   0.008538592179504735,
   0.022778841474051636,
   0.0009499583116993188,
   0.0158038744527018,
   0.0002932076153118466,
   -0.012453259833017172,
   0.007101486888238567,
   0.012307059524102737,
   0.03497321650751728,
   0.006547482074176342,
   0.00583966106855258
  ],
  [
   0.012040630040410028,
   -0.005682306408993436,
   -0.04412692270151395,
   0.031619536630933885,
   0.005374013786128085,
   0.017741075594461413,
   0.024426772854794356,
   -0.029282148377299966,
   -0.003237026784795753,
   0.024379615630982593,
   0.0005687307853091375,
   0.0011622059028974046,
   0.011829082231992085,
   0.018702291184595137,
   0.019376577893146747,
   0.001407200561492087
  ],
  [
   0.021550688742235927,
   0.01146142814112372,
   -0.017877540838191677,
   0.024418844657837314,
   0.007126080817006155,
   0.006489826422728898,
   0.016788747049381596,
   0.01651873600655372,
   0.016912305969281987,
   0.02508172183051662,
   0.0033300007782249776,
   0.003695869060438331,
   0.016142131047211933,
   0.013203071623584821,
   0.00934154652508384,
   -0.00023238133110810308
  ],
  [
   0.004699327683103857,
   -0.009754242454564825,
   -0.02714219307608912,
   -0.0017538039195879366,
   0.010991524152670261,
   0.00546716781188744,
   0.014452299587459467,
   0.0060336481521185556,
   0.019779077683978474,
   0.03568551085538606,
   -0.010011659194604552,
   0.00795771703916049,
   0.010197859393291068,
   0.01857303768615768,
   0.009482460057389718,
   -0.012660827103029945
  ],
  [
   0.013125572674671885,
   -0.007286914472327359,
   -0.01237102604363658,
   -0.008711801619589192,
   0.010123032165502937,
   0.004728924626520223,
   0.0055602817627607775,
   -0.007719111044773083,
   -0.005677890401947744,
   0.011898769363510486,
   -0.010771791016411911,
   -0.0012561538429286707,
   -0.0010236192587038532,
   0.0018695060361271444,
   -0.0022977069072502424,
   -0.0005755575076863256
  ],
  [
   -0.010843022856612722,
   0.0007841044549913824,
   -0.009021002879165756,
   -0.008073669403299188,
   -0.007651679038154417,
   0.002676987126492275,
   0.005418135573887804,
   -0.027254296530125365,
   0.007914693133802587,
   -0.0039960406604881045,
   -0.009589103451116701,
   0.0007133284607382018,
   0.006160898155491915,
   0.003442774276779493,
   0.008761337762286367,
   -0.01515208798840392
  ],
  [
   0.011992405754312537,
   -0.01291490085548347,
   -0.004449035171165012,
   -0.0022943138063966024,
   0.023822883465500183,
   -0.004802636958366884,
   0.0009947836390777742,
   0.00198843387454565,
   0.014146374903011147,
   0.01481664385912381,
   -0.011560774362296395,
   -0.004722774837501312,
   -0.0034538457202975977,
   0.014630200881561485,
   -0.0004229334293101951,
   -0.01911322782974646
  ],
  [
   -0.0190004254642005,
   0.021940046032163516,
   -0.0026889381758137434,
   -0.010903528634342644,
   -0.015151889386842492,
   -0.014485445938367912,
   0.0021074127562015176,
   0.01091749574486971,
   -0.013515244252968867,
   0.009667104488010354,
   -0.012464178060890806,
   0.0018133767142304922,
   0.018691197556884337,
   -0.007389431166437839,
   -0.001249206908037876,
   -0.022661552347880937
  ],
  [
   -0.003955733936188304,
   -0.0011991275372683068,
   0.00433308058131621,
   -0.024054425391626756,
   0.011864869705958075,
   -0.006799137486403059,
   0.006988025198685374,
   0.006838926187707043,
   -0.0015655631785369169,
   0.012876932462071392,
   -0.019759537261640796,
   -0.00645792714922462,
   0.02312412624583492,
   -0.01941581253841385,
   -0.016647003790747655,
   -0.006801025809037156
  ],
  [
   0.004587056482280072,
   0.008633036010438197,
   0.011863372688721913,
   -0.010434925516323268,
   0.026732229597875596,
   -0.00014363824400495315,
   0.011608499169484953,
   0.01133349929234514,
   -0.0013529570326000246,
   -0.0014542474884895321,
   -0.012494536487422173,
   -0.010719399800056508,
   0.009156466555705404,
   -0.013383763045093786,
   -0.02033280793807592,
   -0.03344136447409826
  ],
  [
   0.0076583532322429355,
   0.0037937867435051177,
   0.003328448472570851,
   3.378607853414674e-05,
   0.00403573237645817,
   -0.005607381502506686,
   -0.009254625843696792,
   -0.0027682230073576017,
   0.013157038427512067,
   0.0018938280772770242,
   -0.0019318517305328775,
   -0.00461484492674071,
   0.007154699500839575,
   -0.011469261727072565,
   -0.006631792134081753,
   -0.01150671927329627
  ],
  [
   -0.015613907285655806,
   0.007178026464118675,
   0.008590342342368617,
   0.008213535677874473,
   0.029014949754208517,
   0.007595661251735586,
   -0.0006504201485380373,
   0.004115326008882691,
   -0.00919672903891431,
   0.0051077456779525686,
   0.006515163497102568,
   -0.005089843497196349,
   -0.007377836986570833,
   -0.0005797965907976028,
   -0.0019819086766798967,
   -0.0008699222771037094
  ],
  [
   0.008047898958620554,
   -0.005271451064522333,
   0.009686633350080196,
   0.0024963866603602385,
   0.015201117813242057,
   -0.015524346514114067,
   0.0020063487924462772,
   -0.0076511558725375845,
   -0.0021986307434629566,
   0.0003876198534209524,
   0.0004062921699429389,
   -0.0008376724529463659,
   -0.0052316094149347115,
   -0.013072095052251985,
   -0.0012547081363146655,
   -0.0030934455131029375
  ],
  [
   -0.00916709028960388,
   0.005606684690033801,
   -0.00260792420022772,
   0.01817322800507026,
   0.007897730824245717,
   0.018432484255045446,
   -0.005630156972418045,
   -0.0010916708026830093,
   -0.007165211777166548,
   0.009362351141989737,
   -0.014110288484141722,
   -0.015067450362135542,
   0.0039827776932238245,
   0.00021238777862032183,
   -0.010054908735940641,
   -0.002830345436458411
  ],
  [
   -0.010943691690449725,
   0.006454411181474427,
   -0.0004023590903363453,
   -0.014695352232318342,
   0.010449192076065173,
   0.027201155694004036,
   0.013496954814055518,
   0.013636315472646184,
   0.02125906357339196,
   -0.009399029651484756,
   0.010771595615103952,
   -0.014201791704591871,
   -0.00647497748865929,
   0.016551913695209242,
   -0.0077072784517457265,
   0.013758302525807042
  ],
  [
   -0.011379934565971568,
   -0.003836172598129201,
   -0.007187320890981375,
   0.008308790377971362,
   0.008402098424904992,
   -0.011818457613104858,
   -0.00993857635100336,
   -0.020352817318863996,
   -0.0007149728467225772,
   0.024459261051075643,
   0.00998268020834353,
   0.011502084957544055,
   -0.01007936620330568,
   0.01707946210824129,
   0.014277712477803687,
   -0.006708312880294637
  ],
  [
   0.004490661494964776,
   0.007737730099304658,
   0.007219973068488903,
   0.02592082930330951,
   -0.0051912982117000095,
   -0.010857810587962625,
   -0.02038901775557365,
   -0.012152741064573487,
   0.00011757403289389853,
   0.021672144702199508,
   -0.016804099378500584,
   0.002116936903948299,
   -0.001718838614973853,
   -0.0058644024153346975,
   0.0034473978762241068,
   0.0034600249677420327
  ],
  [
   0.007230938536233627,
   0.002594652097302969,
   -0.0088048834159158,
   -0.01165254174768533,
   -0.008517242712257934,
   0.015704588303875232,
   0.018614646155222767,
   0.0052653177889401374,
   0.009028725171999142,
   0.00018274353728086373,
   0.004494437341584496,
   -0.0074126544240832705,
   -0.00781678408637265,
   0.020846700909887477,
   0.0075380363702526945,
   0.00667068974482409
  ],
  [
   -0.006839697976808292,
   -0.024472593946440285,
   0.009808776692260464,
   0.025743700904677768,
   0.0012448020892523903,
   0.003737598037609349,
   0.008698805040963825,
   -0.014841885584083886,
   0.01826764711048099,
   -0.00879487512736166,
   0.015408388590878352,
   -0.010708933890801462,
   -0.010511794658920005,
   -0.01702573868931211,
   -0.009360097521713656,
   -0.0074519366339921966
  ],
  [
   0.008896026095201855,
   -0.0016526319896777667,
   0.008232379335466528,
   0.008191965593552137,
   -0.028363667653835398,
   -0.009816125746647144,
   0.002007979133192696,
   -0.0009108030266838615,
   0.015190301050495892,
   0.0016194153301067092,
   0.009480590593781812,
   -0.002846723211934989,
   -0.007882756538752438,
   0.004821954270872956,
   0.008156576576955909,
   0.0039050152895435163
  ],
  [
   0.015092672915191152,
   -0.000407763721126188,
   0.0007923462907562614,
   0.012965815487831328,
   -0.00948848615367637,
   -0.010778109290509713,
   0.013554301230153058,
   -0.01144210027236983,
   0.011342496770988043,
   0.017235376855592507,
   -0.00875148400374448,
   0.003437953638079197,
   -0.010407219825058935,
   -0.0068224952798072985,
   -0.0019620269121015783,
   -0.001619671548713155
  ],
  [
   -0.012698632344749846,
   -0.015728293479294202,
   -0.008591953145433673,
   0.019831026310474086,
   0.014705918523463868,
   -0.011544844866700968,
   0.0016612208358741628,
   0.0007477687679517839,
   0.01839854330120681,
   0.0017757363579885294,
   -0.008241107739953768,
   -0.002488184706860228,
   0.021528175414062222,
   -0.004554095774704672,
   0.0013893640275612737,
   -0.008394266806432947
  ],
  [
   0.013811535046879996,
   -0.019525919581936894,
   -0.020424108624919942,
   0.004751201368448308,
   0.015499092642677915,
   0.004502826658721783,
   0.00979793726831856,
   -0.028590116541128967,
   0.025283267442098887,
   0.002544802801033009,
   -0.002758829506665292,
   0.015755939880423366,
   0.0005497806930562663,
   0.003858718813829238,
   0.002294403297608554,
   -0.0052012440036603965
  ],
  [
   -0.0024226588536563074,
   0.005638405513101499,
   -0.016353982238815224,
   0.012080487679409141,
   0.016969443306082244,
   0.010610248921059747,
   0.0075904112435124325,
   -0.02658166738140002,
   0.024388697441047588,
   0.021531580013183626,
   -0.022748516035774616,
   0.0004891390841716786,
   0.02187558964391621,
   0.01020202334200282,
   -0.0014724494931622886,
   0.017645581992583172
  ],
  [
   0.01844425856657261,
   -0.002905369145277907,
   -0.0004740764381036625,
   0.0008195380593230093,
   0.002659943114282702,
   0.015065265906380805,
   0.01614204223734814,
   -0.01154991454965591,
   0.01628986615827176,
   0.015422467422673175,
   0.008744957841683998,
   -0.0030865169613775176,
   0.0017642025380596358,
   0.01753251480702319,
   0.007618575716027284,
   0.0018468926191984457
  ],
  [
   0.027229782224518273,
   0.004392030926393165,
   -0.03192075739686769,
   -0.0008089798617956721,
   0.017273618234378216,
   0.015701635842545456,
   0.026135602568676454,
   -0.011113747148189579,
   -0.0066389154117460995,
   0.018352404864679133,
   -0.006439881284391661,
   0.01386780617071766,
   0.02409987423673928,
   0.016582244534197772,
   0.022528296952007466,
   0.019578857068575806
  ],
  [
   0.01812001473940961,
   0.024529343041803278,
   0.00611258185385747,
   0.012398448468037464,
   0.029151830776908392,
   0.029811264120208097,
   0.020911996123731066,
   -0.01378751297977338,
   -0.010549832499654969,
   -0.006808568251227442,
   0.011286181966774106,
   -0.011618991888533188,
   0.012200535333671924,
   0.024487898823873845,
   0.003038735108106585,
   0.020861087413228698
  ],
  [
   0.019283482528704498,
   0.04192100398842745,
   0.0055063299292631915,
   0.021337782567266254,
   0.0019215479815896702,
   0.015470106455050335,
   0.03020868098348947,
   0.004698153207670432,
   -0.008558577283118407,
   0.0018750200062399918,
   0.013755008463781375,
   0.006801846667556538,
   0.015599474268612575,
   0.027595546591794803,
   0.00860152746136212,
   0.036172072637466704
  ],
  [
   0.019868988929983893,
   0.0414773878146631,
   -0.0024968395502614695,
   0.014800907110036834,
   0.016792068519756467,
   0.03184343286713126,
   0.019181873537852945,
   0.00412965007294369,
   0.0010931674361751677,
   0.018584294698869495,
   -0.012859752368823642,
   0.0020886765118283824,
   0.0075860223258130965,
   0.01883011089208405,
   0.007971077471344162,
   0.01587015809744066
  ],
  [
   0.022853531039260105,
   0.007632781395773973,
   -0.011404332919668515,
   0.007440204816188254,
   0.0035511225820994323,
   0.007561316505724258,
   0.0197339455286212,
   -0.006024541308340872,
   0.003205592487778121,
   0.008646351548985682,
   0.0007994307689075245,
   -0.006158554288378518,
   0.03140414308898102,
   -0.00278707290585085,
   0.014903849161195333,
   0.04440308504621639
  ],
  [
   0.015344342771291033,
   -0.006164410948610836,
   -0.0053922134081782,
   0.006753818585740088,
   0.009657591759844581,
   0.0033798600457131058,
   0.020998481069476257,
   -0.018942650619374193,
   0.0003042572842075846,
   0.016568104764292508,
   -0.02229376059549044,
   0.004016802194527916,
   0.014154394759071492,
   0.004253025511630513,
   0.019664075838704352,
   0.022758991820641217
  ],
  [
   0.024874745736564157,
   0.01753110641984354,
   -0.007978144038819619,
   0.021535564506039193,
   0.004519757900223841,
   0.0015519069085180531,
   0.0111703841101151,
   -0.035532524039086105,
   0.01800776902877248,
   0.015038558615822475,
   -0.024219420607618086,
   -0.0038270891691737606,
   0.0009895223363328388,
   0.01837298431428344,
   0.014026799543955065,
   -0.007663422197261783
  ],
  [
   0.010318761077578825,
   -0.00023888292088778166,
   0.01294455828680414,
   0.011931198361691564,
   0.01636656412167883,
   -0.0006350808571554046,
   0.004197298245513169,
   -0.009789709947589058,
   0.009127897077582593,
   0.0022940966064243936,
   -0.02123021167666777,
   0.013066118185347796,
   0.020720123357169596,
   0.03229163289624282,
   0.01857194930069726,
   -0.012134792149921412
  ],
  [
   0.015114481873714872,
   -0.0013941530558205157,
   0.0066186550965032145,
   0.004086667496156166,
   0.03619176450457028,
   -0.004336141998617947,
   0.0011369339825755924,
   -0.013508355240948724,
   0.010400550072390628,
   0.007221170712819317,
   -0.02112346290807634,
   -0.022230025445307357,
   0.015277098851861435,
   0.02216740245762675,
   0.017625525464586494,
   -0.01101164273301929
  ],
  [
   0.02997555697797761,
   -0.00838249786046871,
   0.026713735756637665,
   -0.010943898955778852,
   -0.004383666244781729,
   0.0002490815662639224,
   0.001361949841699901,
   0.010466147328669018,
   0.02034110620633919,
   0.0021159996227753655,
   0.00824482047037002,
   0.001384639515924687,
   0.004340019855080689,
   0.0014121151194575413,
   0.0012053479736204166,
   -0.012711784948272948
  ],
  [
   -0.006364705312544636,
   -0.020750622784950195,
   0.018576434582369662,
   0.013709742752418748,
   0.0060167328923373745,
   0.009151602958278729,
   0.019063054043848813,
   -0.015094053352757797,
   0.0006142580068203264,
   0.0046051446032693896,
   -0.013707777354361284,
   8.078246659078298e-05,
   0.004060985187361335,
   0.007333300291290468,
   -0.011503656239166467,
   -0.005971537709705772
  ],
  [
   0.022582855662859527,
   -0.003216833508019278,
   0.006891106645101635,
   -0.007992315385150005,
   -0.0015709418102951454,
   0.0028669704957149226,
   0.0006732668857554979,
   0.0073528223363302754,
   -0.0033497842863786267,
   -0.0044039878052244815,
   0.004907144040547855,
   -0.012577066036447595,
   0.012593276980334652,
   -0.010049448248689608,
   0.002083821977380644,
   -0.01605135346346168
  ],
  [
   0.01976399166122171,
   0.001768447258379891,
   0.005414503852965313,
   0.0026764281261894246,
   0.003557751066906735,
   -0.009375174036046287,
   0.012861315505893365,
   -0.008519690963639403,
   -0.0030266874251824293,
   -0.019045047899003215,
   0.011754142473616879,
   0.004910449254366584,
   0.009647262325065882,
   -0.010811215533046472,
   0.012183166476082925,
   -0.023487915664811614
  ],
  [
   -0.01178467307909899,
   -0.003280379666410754,
   -0.010824103926381733,
   -0.006016663535086268,
   0.022211385167264154,
   0.005165047293784745,
   0.024778576818249312,
   -0.016541500467419545,
   -0.001273180399157554,
   0.0034514031569978653,
   0.0010479765840440015,
   0.016102859695317592,
   0.008413390110877113,
   -0.00413926090963639,
   0.005101887475162383,
   -0.01546969417972461
  ],
  [
   -0.0012704481046016958,
   0.0017813753571485585,
   0.007671216737192418,
   0.005103222098439376,
   0.009728929513232952,
   0.0032418020304481854,
   -0.012019720475384592,
   0.005286986000063507,
   0.018047156796198418,
   0.021335509960340296,
   0.006456700148829154,
   -0.006639401112988578,
   0.0030661219689379483,
   0.003954689594593443,
   0.006468937798906412,
   -0.0024426841003695634
  ],
  [
   -0.01538074721844066,
   -0.009049733079006774,
   -0.004393444916083661,
   0.012226550594907135,
   -0.010013075230799551,
   0.012576334921032283,
   0.009744949250821163,
   0.0006619134476865228,
   0.004921678787476762,
   0.0026026970418019826,
   0.02242791179875326,
   -0.005428815312591845,
   -0.004984853183897066,
   0.02016628918133782,
   -0.002743467180618173,
   0.00548751148434499
  ],
  [
   0.025306404338794837,
   -0.0028049938363082483,
   -0.008326772104001722,
   0.02492396258897865,
   0.006884031924223241,
   0.006386901758170174,
   0.01088160154542422,
   -0.012098127837857166,
   -0.014018270530702369,
   0.011306472099196623,
   0.005285560216961566,
   0.0001373543093486268,
   0.011770700917741407,
   0.015419443838751445,
   0.005163365308771519,
   0.0015346873261359415
  ],
  [
   -0.00637071208772405,
   0.01681514588613772,
   -0.0005017362913457106,
   0.0059046404814920295,
   0.0039011195881537898,
   -0.001740120155524684,
   0.014918871729665158,
   0.0008830469186583353,
   -0.011243949816289858,
   0.004622977410519276,
   0.017767629714806048,
   0.004796596469337573,
   -0.010327033154226487,
   -0.008199845752993434,
   0.002638780806115001,
   -0.007571809679367833
  ],
  [
   0.012368285584001723,
   -0.004484312855523884,
   0.0022651735657266987,
   0.0020418810376194503,
   -0.013747428083458475,
   -0.0117146313893473,
   -0.012386247778833202,
   -0.0021407307199116515,
   -0.007894691389917148,
   0.008080536730613682,
   0.002584348653447659,
   -0.015434738487970587,
   0.007922702768272692,
   -0.007231797355489258,
   0.013657531821020703,
   0.001534147377736285
  ],
  [
   -0.001804321265231506,
   -0.004440037676466319,
   0.019299689999056163,
   -0.003425160286000361,
   -0.0006624464825454413,
   -0.005542088450451512,
   -0.0021385977902702523,
   0.006524442436804339,
   0.009758400904179223,
   0.016689397948930148,
   -0.004180571131219114,
   -0.01188684921737219,
   -0.01425795812761059,
   0.008588980434223329,
   -0.009063825418236747,
   0.023832546458531507
  ],
  [
   0.006166462944390375,
   -0.005760212929051295,
   -0.009660798153740631,
   0.0011654120111103156,
   -0.010495861324860571,
   -0.014386122347256284,
   0.0054152188635866304,
   0.006694983574408056,
   0.015022026363273003,
   -0.009498550632851115,
   0.008282098586822034,
   -0.014071471755572657,
   0.008947384929509444,
   0.005901266837563844,
   -0.006708107125928679,
   0.0017073729437495633
  ],
  [
   -0.006390022755110846,
   0.003215488451311631,
   0.003051399400000395,
   0.00511711048273244,
   -0.0020878837867820384,
   -0.023467352227859388,
   0.000905609035556587,
   0.0014838040507523965,
   0.013156647473459989,
   -0.0011145590629458432,
   0.0070309019021023945,
   -0.001047776973139574,
   -0.010763741133057387,
   0.01120509194472774,
   -0.005318197052506886,
   0.005149070277410035
  ],
  [
   0.0037350985548444448,
   0.005390111541008164,
   0.003937068191925244,
   0.013838061129457145,
   0.011336909265702366,
   -0.003253660241039203,
   -0.007823784421546992,
   -0.01739842137160515,
   0.012492952370369872,
   -0.0051008090077274285,
   -0.017243503137933946,
   -0.0028836065672661216,
   0.004592359714224869,
   0.010564196216120064,
   -0.009055424486106693,
   0.0060684407397696314
  ],
  [
   0.0029930965147890033,
   -0.001082384981183258,
   -0.016414913940925126,
   0.001978187085378232,
   -0.002559030217011157,
   -0.0012931430420608635,
   -0.012963274058597363,
   -0.004038349630990076,
   0.004424170399353647,
   -0.0008631921955884831,
   0.006697081057171098,
   -0.02141505327110963,
   0.004977589061271418,
   0.007824783120033521,
   -0.008499128990581086,
   0.023351415077732366
  ],
  [
   0.00017298974957883658,
   0.0029709267362056256,
   -0.012448372669578305,
   -0.00948871815004064,
   0.020962753049830793,
   0.0013458147950243934,
   -0.0001412670986095847,
   -0.010869286483067543,
   0.015084437714673453,
   -0.00016965594028271448,
   0.0009105915537630541,
   0.016769600312356133,
   0.005794391651541581,
   0.008469266963700059,
   0.0009080730713336558,
   -0.006383372694203109
  ],
  [
   0.0025080005839730316,
   -0.00558633423399568,
   -0.01187081375825148,
   0.006831864580863832,
   0.015364638297203043,
   0.010402487222466391,
   0.000485361396431678,
   0.007149624136366159,
   0.02392477256910832,
   0.006587002428052278,
   -0.010700998607052283,
   0.006213700257234615,
   0.015230651265670327,
   0.01849232124392348,
   0.009335216320875136,
   0.0057503720073515474
  ],
  [
   0.02450800351246549,
   0.0020422833242969103,
   -0.0006575899643641674,
   0.004160150767456063,
   0.004121988529399434,
   0.001999435059110227,
   -0.006488788585946808,
   -0.0018434277596199454,
   0.0002818593752124135,
   0.016010647819949264,
   0.0044192835103295455,
   0.00942736721680459,
   -0.0008957500662974333,
   -0.00011718760922507133,
   -0.007586257999495028,
   0.004803535149584916
  ],
  [
   -0.0029103860870012374,
   0.005399449158112533,
   0.006544103151415794,
   0.008937649603391142,
   0.01683267020333884,
   0.033233095634821165,
   0.0008114777058551187,
   -0.013718205715271648,
   0.010122650213830752,
   0.020351099020643276,
   0.013095065696860395,
   0.019637968597113843,
   0.025352285336477893,
   0.01350810639765428,
   0.016110645926717293,
   0.01810208785465966
  ],
  [
   0.026095778554256564,
   0.00972153128773215,
   -0.012673994118136845,
   0.0043130962914108015,
   0.004427815332999002,
   0.01967449225184336,
   0.016942433881307,
   -0.0011638836420091857,
   0.017625579687449294,
   0.02684275185084717,
   -0.00306448107193145,
   0.008124007683714976,
   0.023632096243383558,
   0.0111164853323818,
   -0.003873459471186384,
   0.013281035493442792
  ],
  [
   0.007563380348304498,
   0.01076658524807451,
   0.0037377600399790918,
   0.013599671121815806,
   0.017015811041695094,
   0.016984245356595918,
   0.027110169708206577,
   -0.007162609317074443,
   -0.0032842894106643503,
   0.010151836757387067,
   0.006798523729413066,
   0.00952644760810873,
   0.009845360889906564,
   0.010660252997239054,
   0.020929406675516918,
   0.007230226015215639
  ],
  [
   0.027754100705416722,
   0.008259014700275518,
   0.009040010092705662,
   0.014010370024233809,
   0.002179126413626251,
   0.0028024782173816138,
   0.017050338848493312,
   -0.014107730827076507,
   0.0053334114731064895,
   0.012533153326322231,
   0.007953066273964646,
   0.002639594667454225,
   -0.013726527845227503,
   0.013138998361277387,
   0.025174822862458313,
   0.02122940455162562
  ],
  [
   0.009585992756110348,
   0.031347432166991505,
   0.00890934698701638,
   0.001159539265203044,
   -0.00016877487574421684,
   -0.011201966352256055,
   0.020145622281795467,
   -0.00579519858457211,
   -0.0012862628586954971,
   -0.011971668868126116,
   0.007042706615948017,
   0.008942429958354065,
   -0.01764571035316934,
